{"learner":{"attributes":{"scikit_learn":"{\"_estimator_type\": \"classifier\"}"},"feature_names":["resting_hr","sleep_duration_h","sleep_quality","stress","n_sessions","acwr","acwr_ewma","rhr_delta","sleep_debt_7d","stress_3d","load_spike","consec_train"],"feature_types":["float","float","float","float","float","float","float","float","float","float","float","float"],"gradient_booster":{"model":{"cats":{"enc":[],"feature_segments":[],"sorted_idx":[]},"gbtree_model_param":{"num_parallel_tree":"1","num_trees":"400"},"iteration_indptr":[0,1,2,3,4,5,6,7,8,9,10,11,12,13,14,15,16,17,18,19,20,21,22,23,24,25,26,27,28,29,30,31,32,33,34,35,36,37,38,39,40,41,42,43,44,45,46,47,48,49,50,51,52,53,54,55,56,57,58,59,60,61,62,63,64,65,66,67,68,69,70,71,72,73,74,75,76,77,78,79,80,81,82,83,84,85,86,87,88,89,90,91,92,93,94,95,96,97,98,99,100,101,102,103,104,105,106,107,108,109,110,111,112,113,114,115,116,117,118,119,120,121,122,123,124,125,126,127,128,129,130,131,132,133,134,135,136,137,138,139,140,141,142,143,144,145,146,147,148,149,150,151,152,153,154,155,156,157,158,159,160,161,162,163,164,165,166,167,168,169,170,171,172,173,174,175,176,177,178,179,180,181,182,183,184,185,186,187,188,189,190,191,192,193,194,195,196,197,198,199,200,201,202,203,204,205,206,207,208,209,210,211,212,213,214,215,216,217,218,219,220,221,222,223,224,225,226,227,228,229,230,231,232,233,234,235,236,237,238,239,240,241,242,243,244,245,246,247,248,249,250,251,252,253,254,255,256,257,258,259,260,261,262,263,264,265,266,267,268,269,270,271,272,273,274,275,276,277,278,279,280,281,282,283,284,285,286,287,288,289,290,291,292,293,294,295,296,297,298,299,300,301,302,303,304,305,306,307,308,309,310,311,312,313,314,315,316,317,318,319,320,321,322,323,324,325,326,327,328,329,330,331,332,333,334,335,336,337,338,339,340,341,342,343,344,345,346,347,348,349,350,351,352,353,354,355,356,357,358,359,360,361,362,363,364,365,366,367,368,369,370,371,372,373,374,375,376,377,378,379,380,381,382,383,384,385,386,387,388,389,390,391,392,393,394,395,396,397,398,399,400],"tree_info":[0,0,0,0,0,0,0,0,0,0,0,0,0,0,0,0,0,0,0,0,0,0,0,0,0,0,0,0,0,0,0,0,0,0,0,0,0,0,0,0,0,0,0,0,0,0,0,0,0,0,0,0,0,0,0,0,0,0,0,0,0,0,0,0,0,0,0,0,0,0,0,0,0,0,0,0,0,0,0,0,0,0,0,0,0,0,0,0,0,0,0,0,0,0,0,0,0,0,0,0,0,0,0,0,0,0,0,0,0,0,0,0,0,0,0,0,0,0,0,0,0,0,0,0,0,0,0,0,0,0,0,0,0,0,0,0,0,0,0,0,0,0,0,0,0,0,0,0,0,0,0,0,0,0,0,0,0,0,0,0,0,0,0,0,0,0,0,0,0,0,0,0,0,0,0,0,0,0,0,0,0,0,0,0,0,0,0,0,0,0,0,0,0,0,0,0,0,0,0,0,0,0,0,0,0,0,0,0,0,0,0,0,0,0,0,0,0,0,0,0,0,0,0,0,0,0,0,0,0,0,0,0,0,0,0,0,0,0,0,0,0,0,0,0,0,0,0,0,0,0,0,0,0,0,0,0,0,0,0,0,0,0,0,0,0,0,0,0,0,0,0,0,0,0,0,0,0,0,0,0,0,0,0,0,0,0,0,0,0,0,0,0,0,0,0,0,0,0,0,0,0,0,0,0,0,0,0,0,0,0,0,0,0,0,0,0,0,0,0,0,0,0,0,0,0,0,0,0,0,0,0,0,0,0,0,0,0,0,0,0,0,0,0,0,0,0,0,0,0,0,0,0,0,0,0,0,0,0,0,0,0,0,0,0,0,0,0,0,0,0,0,0,0,0,0,0,0,0,0,0,0,0,0,0,0,0,0,0,0,0,0,0,0,0,0,0,0,0,0,0],"trees":[{"base_weights":[1.223246E-3,2.4012737E-1,-5.416172E-1,-1.6701277E-3,6.097646E-1,-1.0711129E0,-2.6067308E-1,-2.7262503E-1,3.8414547E-1,8.3361524E-1,4.0496193E-2,-6.6570914E-1,-1.2078233E0,2.3594534E-1,-1.0238197E0,6.348113E-1,-4.4218475E-1,1.7406337E0,1.0635698E-1,5.437014E-1,1.8137131E0,-3.6187065E-1,1.9643354E0,-4.9352494E-1,-1.1889106E0,-1.2426765E0,-9.432272E-1,1.9246502E0,6.2023565E-2,-6.001404E-1,-1.1304003E0,-5.366393E-3,5.4445654E-2,-8.78164E-3,-3.7299935E-2,-3.0385766E-2,5.2981526E-2,8.264617E-4,5.6532733E-2,3.1089209E-2,-1.9518089E-2,5.990557E-2,3.8408484E-2,-6.4787925E-3,-2.2188297E-2,-3.6000002E-2,5.9038E-2,6.0776155E-3,-1.8753726E-2,-3.6204536E-2,1.6602011E-2,-3.30169E-2,-3.8894814E-2,-2.3621298E-2,-3.403128E-2,-4.4E-2,5.7972316E-2,-1.442165E-2,1.3064326E-2,-9.284553E-3,-3.587126E-2,-2.9633835E-2,-3.7878595E-2],"categories":[],"categories_nodes":[],"categories_segments":[],"categories_sizes":[],"default_left":[0,0,0,0,0,0,0,0,0,0,0,0,0,0,0,0,0,0,0,0,0,0,0,0,0,0,0,0,0,0,0,0,0,0,0,0,0,0,0,0,0,0,0,0,0,0,0,0,0,0,0,0,0,0,0,0,0,0,0,0,0,0,0],"id":0,"left_children":[1,3,5,7,9,11,13,15,17,19,21,23,25,27,29,31,33,35,37,39,41,43,45,47,49,51,53,55,57,59,61,-1,-1,-1,-1,-1,-1,-1,-1,-1,-1,-1,-1,-1,-1,-1,-1,-1,-1,-1,-1,-1,-1,-1,-1,-1,-1,-1,-1,-1,-1,-1,-1],"loss_changes":[1.5999976E4,7.6569956E3,5.608453E3,5.4143955E3,4.3172246E3,7.235635E2,9.336613E3,4.681706E3,8.051501E3,6.908545E3,7.403429E3,2.9653674E2,8.8953125E1,4.3831387E3,4.3785645E2,4.600165E3,3.069351E3,2.5597363E2,2.4853293E3,1.1041953E4,5.396914E2,4.3580066E2,2.11958E1,2.2761017E2,2.6125732E1,6.459277E1,3.3115967E1,3.95083E1,2.7429424E3,3.37899E2,1.4504004E2,0E0,0E0,0E0,0E0,0E0,0E0,0E0,0E0,0E0,0E0,0E0,0E0,0E0,0E0,0E0,0E0,0E0,0E0,0E0,0E0,0E0,0E0,0E0,0E0,0E0,0E0,0E0,0E0,0E0,0E0,0E0,0E0],"parents":[2147483647,0,0,1,1,2,2,3,3,4,4,5,5,6,6,7,7,8,8,9,9,10,10,11,11,12,12,13,13,14,14,15,15,16,16,17,17,18,18,19,19,20,20,21,21,22,22,23,23,24,24,25,25,26,26,27,27,28,28,29,29,30,30],"right_children":[2,4,6,8,10,12,14,16,18,20,22,24,26,28,30,32,34,36,38,40,42,44,46,48,50,52,54,56,58,60,62,-1,-1,-1,-1,-1,-1,-1,-1,-1,-1,-1,-1,-1,-1,-1,-1,-1,-1,-1,-1,-1,-1,-1,-1,-1,-1,-1,-1,-1,-1,-1,-1],"split_conditions":[5.7239544E-1,5.3202754E-1,8.0886847E-1,7.710793E-3,2.871173E-1,-1.1621869E0,1.0178914E0,-1.8821476E0,2.871173E-1,7.710793E-3,5.395997E-1,6.5177673E-1,1.4536523E0,8.492895E-1,-1.2954574E0,-2.0965748E0,-3.1736553E-1,-2.2807601E-1,5.395997E-1,-5.1276135E-1,1.085363E-2,1.4850115E0,5.82254E-1,-2.2393594E0,6.3241684E-1,-6.4748156E-1,-2.5695398E-1,5.618491E-1,-5.382744E-1,1.3274602E0,-4.0126348E-1,-5.366393E-3,5.4445654E-2,-8.78164E-3,-3.7299935E-2,-3.0385766E-2,5.2981526E-2,8.264617E-4,5.6532733E-2,3.1089209E-2,-1.9518089E-2,5.990557E-2,3.8408484E-2,-6.4787925E-3,-2.2188297E-2,-3.6000002E-2,5.9038E-2,6.0776155E-3,-1.8753726E-2,-3.6204536E-2,1.6602011E-2,-3.30169E-2,-3.8894814E-2,-2.3621298E-2,-3.403128E-2,-4.4E-2,5.7972316E-2,-1.442165E-2,1.3064326E-2,-9.284553E-3,-3.587126E-2,-2.9633835E-2,-3.7878595E-2],"split_indices":[2,7,2,2,2,7,2,2,2,2,2,2,10,2,7,2,2,1,2,2,2,7,1,7,8,7,11,1,10,2,7,0,0,0,0,0,0,0,0,0,0,0,0,0,0,0,0,0,0,0,0,0,0,0,0,0,0,0,0,0,0,0,0],"split_type":[0,0,0,0,0,0,0,0,0,0,0,0,0,0,0,0,0,0,0,0,0,0,0,0,0,0,0,0,0,0,0,0,0,0,0,0,0,0,0,0,0,0,0,0,0,0,0,0,0,0,0,0,0,0,0,0,0,0,0,0,0,0,0],"sum_hessian":[1.2337196E5,8.566941E4,3.7702555E4,5.179125E4,3.3878152E4,1.30688545E4,2.46337E4,3.042461E4,2.136664E4,2.431602E4,9.562136E3,3.2971843E3,9.771671E3,1.4923141E4,9.710558E3,4.7895464E3,2.5635062E4,3.6309297E3,1.773571E4,1.8766443E4,5.549576E3,7.908832E3,1.6533032E3,2.4822317E3,8.1495264E2,8.631066E3,1.140604E3,1.3925005E3,1.3530641E4,1.9531252E3,7.7574326E3,2.8353198E3,1.9542267E3,2.1605639E4,4.029424E3,3.285489E1,3.598075E3,1.6983957E4,7.517546E2,1.3286426E4,5.480017E3,4.1291846E3,1.4203917E3,5.7062334E3,2.2025984E3,1.5E0,1.6518032E3,3.9456857E2,2.087663E3,8.0696606E2,7.986592E0,2.3766323E3,6.254434E3,6.311356E2,5.094684E2,2.75E0,1.3897505E3,5.5151367E3,8.0155034E3,1.3135787E3,6.395465E2,3.7362048E3,4.0212278E3],"tree_param":{"num_deleted":"0","num_feature":"12","num_nodes":"63","size_leaf_vector":"1"}},{"base_weights":[-2.2666068E-3,2.2590876E-1,-5.1641583E-1,1.0060893E0,1.20092735E-1,-1.0281423E0,-2.4433309E-1,2.6160413E-1,1.7149813E0,-9.5042926E-1,2.8181356E-1,-1.2215012E0,1.528281E-1,2.3755136E-1,-9.8213863E-1,5.9358153E-2,-7.5566E-1,1.8436342E0,-1.2141232E0,-1.114937E0,5.248245E-1,1.6679904E0,7.659867E-2,-1.0163336E0,-1.3853002E0,1.4448851E0,-1.2471608E0,1.8654718E0,6.765976E-2,-1.1595854E0,5.7409734E-1,-3.1138737E-2,-1.41437E-3,5.639024E-2,1.7565219E-2,5.2408032E-2,-3.9951567E-2,-2.0053552E-2,-3.479515E-2,4.518234E-2,-3.9342746E-2,5.409614E-2,-3.026691E-2,-1.9587224E-2,1.4637257E-2,-3.309952E-2,3.3752974E-2,-4.2950235E-2,-2.6982127E-2,5.7941563E-2,1.4156557E-2,-2.8929661E-3,-4.295465E-2,5.6507207E-2,-5.354583E-2,-1.3807296E-2,1.0519094E-2,-3.1837136E-2,-4.4462714E-2,5.504365E-2,-3.273319E-2],"categories":[],"categories_nodes":[],"categories_segments":[],"categories_sizes":[],"default_left":[0,0,0,0,0,0,0,0,0,0,0,0,0,0,0,0,0,0,0,0,0,0,0,0,0,0,0,0,0,0,0,0,0,0,0,0,0,0,0,0,0,0,0,0,0,0,0,0,0,0,0,0,0,0,0,0,0,0,0,0,0],"id":1,"left_children":[1,3,5,7,9,11,13,15,17,19,21,23,25,27,29,-1,31,33,35,37,39,41,43,45,47,49,51,53,55,57,59,-1,-1,-1,-1,-1,-1,-1,-1,-1,-1,-1,-1,-1,-1,-1,-1,-1,-1,-1,-1,-1,-1,-1,-1,-1,-1,-1,-1,-1,-1],"loss_changes":[1.4467159E4,7.051148E3,5.277382E3,5.383122E3,1.3021495E4,3.0047646E3,8.799279E3,8.693966E3,1.9712656E3,2.3962334E3,1.858743E4,3.785664E2,3.3519846E3,4.140554E3,2.7008691E3,0E0,6.25161E2,2.25875E2,7.9087585E1,1.7727246E2,1.7875846E3,3.0516523E3,1.7078535E4,9.369155E2,1.4031836E2,4.552401E2,1.8886597E2,9.68457E1,2.025481E3,2.7683105E2,2.1044124E3,0E0,0E0,0E0,0E0,0E0,0E0,0E0,0E0,0E0,0E0,0E0,0E0,0E0,0E0,0E0,0E0,0E0,0E0,0E0,0E0,0E0,0E0,0E0,0E0,0E0,0E0,0E0,0E0,0E0,0E0],"parents":[2147483647,0,0,1,1,2,2,3,3,4,4,5,5,6,6,7,7,8,8,9,9,10,10,11,11,12,12,13,13,14,14,16,16,17,17,18,18,19,19,20,20,21,21,22,22,23,23,24,24,25,25,26,26,27,27,28,28,29,29,30,30],"right_children":[2,4,6,8,10,12,14,16,18,20,22,24,26,28,30,-1,32,34,36,38,40,42,44,46,48,50,52,54,56,58,60,-1,-1,-1,-1,-1,-1,-1,-1,-1,-1,-1,-1,-1,-1,-1,-1,-1,-1,-1,-1,-1,-1,-1,-1,-1,-1,-1,-1,-1,-1],"split_conditions":[5.7239544E-1,-1.8821476E0,8.0886847E-1,-1.9472389E0,-1.1790663E0,8.5646294E-2,1.0178914E0,-2.4622483E0,2.4634805E0,1.8934306E0,-5.1276135E-1,-9.933201E-1,-2.4237841E-1,8.492895E-1,-1.7086363E-1,5.9358153E-2,1.6002764E0,2.4111843E0,-2.354138E0,2.8918707E-1,1.7910705E0,1.925366E0,7.710793E-3,-3.601924E-1,-1.1284353E-1,-5.714427E-1,-1.1581521E-1,1.2088797E0,-6.0390882E-2,-8.667569E-1,-5.798803E-1,-3.1138737E-2,-1.41437E-3,5.639024E-2,1.7565219E-2,5.2408032E-2,-3.9951567E-2,-2.0053552E-2,-3.479515E-2,4.518234E-2,-3.9342746E-2,5.409614E-2,-3.026691E-2,-1.9587224E-2,1.4637257E-2,-3.309952E-2,3.3752974E-2,-4.2950235E-2,-2.6982127E-2,5.7941563E-2,1.4156557E-2,-2.8929661E-3,-4.295465E-2,5.6507207E-2,-5.354583E-2,-1.3807296E-2,1.0519094E-2,-3.1837136E-2,-4.4462714E-2,5.504365E-2,-3.273319E-2],"split_indices":[2,2,2,1,2,9,2,2,3,9,2,3,3,2,9,0,9,9,2,3,3,3,2,9,9,3,3,3,4,3,3,0,0,0,0,0,0,0,0,0,0,0,0,0,0,0,0,0,0,0,0,0,0,0,0,0,0,0,0,0,0],"split_type":[0,0,0,0,0,0,0,0,0,0,0,0,0,0,0,0,0,0,0,0,0,0,0,0,0,0,0,0,0,0,0,0,0,0,0,0,0,0,0,0,0,0,0,0,0,0,0,0,0,0,0,0,0,0,0,0,0,0,0,0,0],"sum_hessian":[1.2331568E5,8.541136E4,3.7904324E4,1.0199802E4,7.5211555E4,1.3156717E4,2.474761E4,4.9756714E3,5.22413E3,9.870202E3,6.5341355E4,1.1305626E4,1.8510905E3,1.4970545E4,9.777064E3,1.8508119E3,3.1248594E3,5.0046836E3,2.1944655E2,8.880202E3,9.8999994E2,8.42505E3,5.6916305E4,5.022217E3,6.283409E3,9.6263635E2,8.8845416E2,1.4137598E3,1.3556785E4,8.776586E3,1.000478E3,2.2342056E3,8.90654E2,4.8648306E3,1.3985289E2,7.85299E0,2.1159357E2,8.128962E2,8.067306E3,6.453292E2,3.4467072E2,8.02026E3,4.047906E2,2.0520396E4,3.6395906E4,4.826646E3,1.9557085E2,5.734186E3,5.492234E2,6.411007E2,3.215356E2,1.23068054E2,7.653861E2,1.4072651E3,6.494542E0,4.7307603E3,8.826024E3,6.7289067E3,2.0476793E3,5.693404E2,4.311376E2],"tree_param":{"num_deleted":"0","num_feature":"12","num_nodes":"61","size_leaf_vector":"1"}},{"base_weights":[-8.065793E-3,2.1182065E-1,-5.041208E-1,-2.5919272E-2,5.679089E-1,-9.949469E-1,-2.4374126E-1,-2.8098908E-1,3.3616433E-1,7.798993E-1,3.0042464E-2,-1.1807203E0,1.4868252E-1,2.2137405E-1,-9.573947E-1,5.913085E-1,-4.4567984E-1,1.6751639E0,6.789724E-2,4.989481E-1,1.7429549E0,-3.5893488E-1,1.8913367E0,-8.432712E-1,-1.3817041E0,1.4186789E0,-1.2177801E0,1.8109139E0,5.9707385E-2,-1.1302283E0,5.6670165E-1,-5.446825E-3,5.122058E-2,-2.8202996E-2,-7.327991E-3,5.180215E-2,-2.8927146E-2,9.460657E-3,-1.9239701E-2,2.8988592E-2,-1.8953487E-2,5.3844936E-2,-1.5849533E-2,-1.3663081E-2,1.1939388E-2,5.7096105E-2,-1.855196E-2,-2.1249395E-2,-3.999091E-2,-2.3999203E-2,-4.2335626E-2,5.6197606E-2,1.5804043E-2,-2.3112413E-2,-4.82785E-2,5.5089816E-2,-6.17347E-3,-1.1074564E-2,1.5376968E-2,-2.2726133E-2,-3.9520405E-2,5.31229E-2,-3.1368103E-2],"categories":[],"categories_nodes":[],"categories_segments":[],"categories_sizes":[],"default_left":[0,0,0,0,0,0,0,0,0,0,0,0,0,0,0,0,0,0,0,0,0,0,0,0,0,0,0,0,0,0,0,0,0,0,0,0,0,0,0,0,0,0,0,0,0,0,0,0,0,0,0,0,0,0,0,0,0,0,0,0,0,0,0],"id":2,"left_children":[1,3,5,7,9,11,13,15,17,19,21,23,25,27,29,31,33,35,37,39,41,43,45,47,49,51,53,55,57,59,61,-1,-1,-1,-1,-1,-1,-1,-1,-1,-1,-1,-1,-1,-1,-1,-1,-1,-1,-1,-1,-1,-1,-1,-1,-1,-1,-1,-1,-1,-1,-1,-1],"loss_changes":[1.342486E4,7.2192896E3,4.830755E3,4.7229727E3,3.8928174E3,2.7837861E3,8.198863E3,4.3104536E3,7.5919873E3,6.62516E3,6.9894346E3,7.6327246E2,3.1806326E3,3.842876E3,2.5679307E3,4.1107144E3,2.5130894E3,4.8187305E2,3.0906057E3,1.0019568E4,6.525586E2,5.834459E2,5.0876953E1,2.7731445E2,1.2E2,3.8411548E2,1.5340039E2,7.1131836E1,2.6366492E3,6.0947266E2,1.9302024E3,0E0,0E0,0E0,0E0,0E0,0E0,0E0,0E0,0E0,0E0,0E0,0E0,0E0,0E0,0E0,0E0,0E0,0E0,0E0,0E0,0E0,0E0,0E0,0E0,0E0,0E0,0E0,0E0,0E0,0E0,0E0,0E0],"parents":[2147483647,0,0,1,1,2,2,3,3,4,4,5,5,6,6,7,7,8,8,9,9,10,10,11,11,12,12,13,13,14,14,15,15,16,16,17,17,18,18,19,19,20,20,21,21,22,22,23,23,24,24,25,25,26,26,27,27,28,28,29,29,30,30],"right_children":[2,4,6,8,10,12,14,16,18,20,22,24,26,28,30,32,34,36,38,40,42,44,46,48,50,52,54,56,58,60,62,-1,-1,-1,-1,-1,-1,-1,-1,-1,-1,-1,-1,-1,-1,-1,-1,-1,-1,-1,-1,-1,-1,-1,-1,-1,-1,-1,-1,-1,-1,-1,-1],"split_conditions":[5.7239544E-1,5.208801E-1,8.0886847E-1,7.710793E-3,2.871173E-1,8.5646294E-2,1.0178914E0,-1.8821476E0,2.871173E-1,7.710793E-3,5.395997E-1,-8.537192E-1,-2.4237841E-1,8.492895E-1,-1.7086363E-1,-2.0965748E0,-7.9012257E-1,1.6476321E0,3.6060642E-2,-5.1276135E-1,1.5155495E0,9.2235726E-1,1.2679425E0,6.918293E-1,-1.5333232E0,-5.714427E-1,2.4699932E-1,8.966904E-1,-1.4783283E-1,-9.3707156E-1,-5.798803E-1,-5.446825E-3,5.122058E-2,-2.8202996E-2,-7.327991E-3,5.180215E-2,-2.8927146E-2,9.460657E-3,-1.9239701E-2,2.8988592E-2,-1.8953487E-2,5.3844936E-2,-1.5849533E-2,-1.3663081E-2,1.1939388E-2,5.7096105E-2,-1.855196E-2,-2.1249395E-2,-3.999091E-2,-2.3999203E-2,-4.2335626E-2,5.6197606E-2,1.5804043E-2,-2.3112413E-2,-4.82785E-2,5.5089816E-2,-6.17347E-3,-1.1074564E-2,1.5376968E-2,-2.2726133E-2,-3.9520405E-2,5.31229E-2,-3.1368103E-2],"split_indices":[2,7,2,2,2,9,2,2,2,2,2,7,3,2,9,2,2,3,3,2,3,9,3,2,3,3,3,3,10,7,3,0,0,0,0,0,0,0,0,0,0,0,0,0,0,0,0,0,0,0,0,0,0,0,0,0,0,0,0,0,0,0,0],"split_type":[0,0,0,0,0,0,0,0,0,0,0,0,0,0,0,0,0,0,0,0,0,0,0,0,0,0,0,0,0,0,0,0,0,0,0,0,0,0,0,0,0,0,0,0,0,0,0,0,0,0,0,0,0,0,0,0,0,0,0,0,0,0,0],"sum_hessian":[1.23076305E5,8.527639E4,3.7799914E4,5.1136426E4,3.413997E4,1.3101062E4,2.4698854E4,3.0001848E4,2.1134578E4,2.4488006E4,9.651961E3,1.1270265E4,1.8307969E3,1.4953666E4,9.745187E3,4.7643745E3,2.5237473E4,3.5266738E3,1.7607904E4,1.8958717E4,5.529289E3,7.9842104E3,1.6677507E3,4.2088525E3,7.0614126E3,9.488725E2,8.8192444E2,1.3795403E3,1.3574125E4,8.752865E3,9.9232196E2,2.815474E3,1.9489004E3,7.304087E3,1.7933387E4,3.4594216E3,6.725225E1,1.3053792E4,4.5541133E3,1.3414546E4,5.5441714E3,5.406024E3,1.23264946E2,7.0817383E3,9.024724E2,1.6601427E3,7.6080127E0,3.3015293E3,9.07323E2,3.4198105E2,6.7194316E3,6.277954E2,3.2107706E2,4.1298212E2,4.6894232E2,1.3624608E3,1.7079533E1,6.971888E3,6.602237E3,2.9273718E3,5.825493E3,5.6802515E2,4.2429678E2],"tree_param":{"num_deleted":"0","num_feature":"12","num_nodes":"63","size_leaf_vector":"1"}},{"base_weights":[-3.8434048E-3,-6.5007013E-1,1.5186654E-1,-1.0199193E0,-4.9820688E-1,-6.5452926E-2,5.1755613E-1,-8.743593E-1,-1.2315404E0,-6.533373E-1,-3.6718708E-1,1.6387016E-1,-2.6193926E-1,5.6547815E-1,-1.094516E0,-1.0338768E0,-7.1417874E-1,-1.4659646E0,-1.1552281E0,-2.9967892E-1,-7.4116504E-1,-2.1414657E-1,-5.0760424E-1,2.4909006E-1,-4.861159E-1,-3.7771866E-1,6.018063E-1,4.4897792E-1,1.1109083E0,-1.3308736E0,5.142253E-2,-2.7101535E-2,-3.7597135E-2,-2.8155772E-2,-1.4094624E-2,-3.9339103E-2,-4.9433365E-2,-2.5573066E-2,-3.6593944E-2,-1.6260456E-2,3.0190044E-3,-2.8193014E-2,-1.9433565E-2,-1.4480544E-2,-9.301831E-4,-1.749285E-2,-5.0899317E-3,2.919519E-3,3.7130915E-2,-3.0441694E-2,-7.5093205E-3,-8.210588E-3,-1.945507E-2,2.5783826E-2,-3.6370926E-2,3.9778478E-3,1.6186116E-2,-3.7061847E-3,3.601914E-2,-4.485545E-2,-2.8702991E-2,2.816208E-2,-2.8252462E-2],"categories":[],"categories_nodes":[],"categories_segments":[],"categories_sizes":[],"default_left":[0,0,0,0,0,0,0,0,0,0,0,0,0,0,0,0,0,0,0,0,0,0,0,0,0,0,0,0,0,0,0,0,0,0,0,0,0,0,0,0,0,0,0,0,0,0,0,0,0,0,0,0,0,0,0,0,0,0,0,0,0,0,0],"id":3,"left_children":[1,3,5,7,9,11,13,15,17,19,21,23,25,27,29,31,33,35,37,39,41,43,45,47,49,51,53,55,57,59,61,-1,-1,-1,-1,-1,-1,-1,-1,-1,-1,-1,-1,-1,-1,-1,-1,-1,-1,-1,-1,-1,-1,-1,-1,-1,-1,-1,-1,-1,-1,-1,-1],"loss_changes":[1.237156E4,1.340333E3,7.873743E3,2.1294727E2,3.437744E2,2.80026E3,2.8536914E3,1.0453369E2,4.8916016E1,2.404519E2,1.9712476E2,1.588606E3,3.3473093E3,2.278503E3,2.8893115E2,5.789331E1,1.1243286E2,1.7271362E1,4.0780273E1,1.4975352E2,1.144895E2,2.1605295E2,1.2199158E2,3.804067E3,4.14128E2,8.3124023E2,1.8504098E3,8.467197E2,6.9927295E2,5.291858E1,1.6243776E2,0E0,0E0,0E0,0E0,0E0,0E0,0E0,0E0,0E0,0E0,0E0,0E0,0E0,0E0,0E0,0E0,0E0,0E0,0E0,0E0,0E0,0E0,0E0,0E0,0E0,0E0,0E0,0E0,0E0,0E0,0E0,0E0],"parents":[2147483647,0,0,1,1,2,2,3,3,4,4,5,5,6,6,7,7,8,8,9,9,10,10,11,11,12,12,13,13,14,14,15,15,16,16,17,17,18,18,19,19,20,20,21,21,22,22,23,23,24,24,25,25,26,26,27,27,28,28,29,29,30,30],"right_children":[2,4,6,8,10,12,14,16,18,20,22,24,26,28,30,32,34,36,38,40,42,44,46,48,50,52,54,56,58,60,62,-1,-1,-1,-1,-1,-1,-1,-1,-1,-1,-1,-1,-1,-1,-1,-1,-1,-1,-1,-1,-1,-1,-1,-1,-1,-1,-1,-1,-1,-1,-1,-1],"split_conditions":[-7.8770894E-1,-1.2152255E0,4.9900967E-1,-2.2630358E-1,-9.861988E-1,5.641452E-2,2.270344E0,3.4141308E-1,-1.4778428E0,-1.0019033E0,-8.159878E-1,2.4699932E-1,1.5697395E0,1.465914E0,1.9340458E0,-8.279987E-1,-4.869764E-1,-5.6777936E-1,-1.1866379E0,4.026822E-1,-1.5550727E-1,-2.0374957E-1,7.195505E-1,1.467201E-1,-3.8231143E-1,1.2226508E0,2.1256788E0,-3.6935347E-1,-1.5604806E-1,1.1257095E0,2.6320639E0,-2.7101535E-2,-3.7597135E-2,-2.8155772E-2,-1.4094624E-2,-3.9339103E-2,-4.9433365E-2,-2.5573066E-2,-3.6593944E-2,-1.6260456E-2,3.0190044E-3,-2.8193014E-2,-1.9433565E-2,-1.4480544E-2,-9.301831E-4,-1.749285E-2,-5.0899317E-3,2.919519E-3,3.7130915E-2,-3.0441694E-2,-7.5093205E-3,-8.210588E-3,-1.945507E-2,2.5783826E-2,-3.6370926E-2,3.9778478E-3,1.6186116E-2,-3.7061847E-3,3.601914E-2,-4.485545E-2,-2.8702991E-2,2.816208E-2,-2.8252462E-2],"split_indices":[9,9,7,5,9,8,3,10,9,5,8,3,9,9,8,8,0,0,7,10,10,10,7,9,8,8,3,9,8,8,9,0,0,0,0,0,0,0,0,0,0,0,0,0,0,0,0,0,0,0,0,0,0,0,0,0,0,0,0,0,0,0,0],"split_type":[0,0,0,0,0,0,0,0,0,0,0,0,0,0,0,0,0,0,0,0,0,0,0,0,0,0,0,0,0,0,0,0,0,0,0,0,0,0,0,0,0,0,0,0,0,0,0,0,0,0,0,0,0,0,0,0,0,0,0,0,0,0,0],"sum_hessian":[1.22946516E5,2.3871586E4,9.907493E4,6.9470244E3,1.692456E4,6.2144777E4,3.693015E4,4.118984E3,2.8280405E3,7.747436E3,9.177125E3,2.8676283E4,3.3468496E4,3.586465E4,1.065499E3,2.0610308E3,2.0579531E3,6.900533E2,2.1379873E3,1.542126E3,6.20531E3,4.39239E3,4.784735E3,2.5352877E4,3.323408E3,2.951303E4,3.9554648E3,2.9553945E4,6.3107036E3,8.831765E2,1.8232248E2,1.2954933E3,7.655374E2,1.0714268E3,9.865265E2,3.7730753E2,3.127458E2,3.7828268E2,1.7597045E3,9.6038544E2,5.8174054E2,1.9816393E3,4.223671E3,1.7803027E3,2.6120876E3,3.910469E3,8.7426587E2,2.1979623E4,3.3732534E3,1.0241826E3,2.2992253E3,2.1322969E4,8.19006E3,3.4640195E3,4.914454E2,6.577368E3,2.2976578E4,4.2760367E2,5.8831E3,6.115755E2,2.71601E2,9.6321915E1,8.6000565E1],"tree_param":{"num_deleted":"0","num_feature":"12","num_nodes":"63","size_leaf_vector":"1"}},{"base_weights":[2.917106E-3,2.1267317E-1,-4.7051778E-1,1.65917E-1,1.8290685E0,-9.540911E-1,-2.1405843E-1,9.4215935E-1,5.7434898E-2,-5.584544E-2,1.8452553E0,-1.1326821E0,1.7832458E-1,2.4009287E-1,-9.169804E-1,2.3795138E-1,1.6240245E0,-9.2005575E-1,2.1039505E-1,1.8493447E0,-4.436613E-2,-1.1809009E0,-7.271079E-1,-2.1360274E-1,5.260587E-1,1.7681972E0,7.9444796E-2,-1.0734934E0,5.7723945E-1,5.661003E-2,-2.2301232E-2,5.2048102E-2,-3.1494603E-2,-3.2449637E-2,1.493306E-2,4.806101E-2,-2.1005906E-4,5.590283E-2,2.3802254E-2,-3.1390354E-2,-3.9619345E-2,-2.9456355E-2,-8.566212E-3,-1.041187E-2,3.4206312E-2,-3.3078212E-2,1.7324043E-2,5.3544752E-2,-6.802724E-3,-1.3637226E-2,1.3204667E-2,-3.5777308E-2,-2.5216036E-2,-4.3732047E-2,1.9176427E-2],"categories":[],"categories_nodes":[],"categories_segments":[],"categories_sizes":[],"default_left":[0,0,0,0,0,0,0,0,0,0,0,0,0,0,0,0,0,0,0,0,0,0,0,0,0,0,0,0,0,0,0,0,0,0,0,0,0,0,0,0,0,0,0,0,0,0,0,0,0,0,0,0,0,0,0],"id":4,"left_children":[1,3,5,7,9,11,13,15,17,-1,19,21,23,25,27,29,31,33,35,37,-1,39,41,43,45,47,49,51,53,-1,-1,-1,-1,-1,-1,-1,-1,-1,-1,-1,-1,-1,-1,-1,-1,-1,-1,-1,-1,-1,-1,-1,-1,-1,-1],"loss_changes":[1.225128E4,6.460868E3,4.6972207E3,6.996783E3,1.4700635E2,2.6548242E3,7.901926E3,4.8916865E3,1.09003545E4,0E0,3.5270996E1,2.20875E2,2.4392406E2,3.6914272E3,2.2727168E3,8.1138965E3,1.5368252E3,2.2606885E3,1.9071676E4,3.4075195E1,0E0,1.8913086E2,1.3554663E2,1.5248254E2,8.002957E1,4.7855957E1,2.6215112E3,2.4297461E2,1.1718808E2,0E0,0E0,0E0,0E0,0E0,0E0,0E0,0E0,0E0,0E0,0E0,0E0,0E0,0E0,0E0,0E0,0E0,0E0,0E0,0E0,0E0,0E0,0E0,0E0,0E0,0E0],"parents":[2147483647,0,0,1,1,2,2,3,3,4,4,5,5,6,6,7,7,8,8,10,10,11,11,12,12,13,13,14,14,15,15,16,16,17,17,18,18,19,19,21,21,22,22,23,23,24,24,25,25,26,26,27,27,28,28],"right_children":[2,4,6,8,10,12,14,16,18,-1,20,22,24,26,28,30,32,34,36,38,-1,40,42,44,46,48,50,52,54,-1,-1,-1,-1,-1,-1,-1,-1,-1,-1,-1,-1,-1,-1,-1,-1,-1,-1,-1,-1,-1,-1,-1,-1,-1,-1],"split_conditions":[5.7239544E-1,5.395997E-1,8.0886847E-1,-1.8821476E0,6.023315E-1,1.1618319E-1,1.0178914E0,-1.9472389E0,-1.1790663E0,-5.584544E-2,1.5067805E0,-2.4720588E-1,5.528608E-1,8.492895E-1,-1.1284353E-1,-2.4622483E0,2.6320639E0,1.8934306E0,-5.1276135E-1,1.1086323E0,-4.436613E-2,-2.5695398E-1,3.5725442E-1,1.5067805E0,6.160587E-1,1.0506122E0,-5.382744E-1,-8.5794383E-1,1.1479477E0,5.661003E-2,-2.2301232E-2,5.2048102E-2,-3.1494603E-2,-3.2449637E-2,1.493306E-2,4.806101E-2,-2.1005906E-4,5.590283E-2,2.3802254E-2,-3.1390354E-2,-3.9619345E-2,-2.9456355E-2,-8.566212E-3,-1.041187E-2,3.4206312E-2,-3.3078212E-2,1.7324043E-2,5.3544752E-2,-6.802724E-3,-1.3637226E-2,1.3204667E-2,-3.5777308E-2,-2.5216036E-2,-4.3732047E-2,1.9176427E-2],"split_indices":[2,2,2,2,1,9,2,1,2,0,1,9,9,2,9,2,9,9,2,9,0,11,1,1,2,9,10,9,2,0,0,0,0,0,0,0,0,0,0,0,0,0,0,0,0,0,0,0,0,0,0,0,0,0,0],"split_type":[0,0,0,0,0,0,0,0,0,0,0,0,0,0,0,0,0,0,0,0,0,0,0,0,0,0,0,0,0,0,0,0,0,0,0,0,0,0,0,0,0,0,0,0,0,0,0,0,0,0,0,0,0,0,0],"sum_hessian":[1.2336717E5,8.549087E4,3.787631E4,8.308853E4,2.4023325E3,1.31251455E4,2.4751164E4,1.0187109E4,7.290142E4,9.992674E0,2.3923398E3,1.1337182E4,1.7879642E3,1.503673E4,9.714433E3,5.0121123E3,5.174997E3,9.86354E3,6.3037883E4,2.3898433E3,2.496434E0,1.0130813E4,1.2063679E3,8.4074994E2,9.472143E2,1.4294661E3,1.3607265E4,8.793621E3,9.208115E2,1.8695466E3,3.1425657E3,4.9692227E3,2.0577425E2,8.854563E3,1.0089758E3,8.516196E3,5.4521688E4,2.3576348E3,3.220853E1,5.16554E3,4.9652734E3,7.642157E2,4.4215225E2,7.6598267E2,7.476732E1,2.835859E1,9.188557E2,1.4177545E3,1.1711598E1,5.4856704E3,8.1215938E3,5.8163203E3,2.977301E3,2.6548754E1,8.942628E2],"tree_param":{"num_deleted":"0","num_feature":"12","num_nodes":"55","size_leaf_vector":"1"}},{"base_weights":[4.8049386E-3,2.0934086E-1,-4.5722285E-1,1.6552806E-1,1.7785628E0,-9.5071757E-1,-1.9863494E-1,9.1477454E-1,6.2370583E-2,-5.504672E-2,1.7973415E0,-8.8070005E-1,-1.1206954E0,2.3636617E-1,-8.688341E-1,2.4302731E-1,1.5736767E0,-8.8116336E-1,2.1064882E-1,5.4031637E-2,-4.1787207E-2,-8.3039147E-1,-1.178676E0,-9.891644E-1,-1.3098987E0,1.7170906E0,8.4040105E-2,2.707407E-1,-8.809079E-1,5.5093765E-2,-2.1349207E-2,2.9581454E-2,5.1384784E-2,-2.4561878E-2,-3.7815392E-2,4.6623543E-2,1.2280392E-4,-2.6161827E-2,-1.1901742E-2,-2.686593E-2,-3.855938E-2,-2.7191995E-2,-3.750527E-2,-4.083218E-2,-2.6873978E-2,-4.8540905E-2,5.17786E-2,-1.2691165E-2,1.2536254E-2,4.2771447E-2,-2.1685077E-2,-3.82745E-2,-2.5165336E-2],"categories":[],"categories_nodes":[],"categories_segments":[],"categories_sizes":[],"default_left":[0,0,0,0,0,0,0,0,0,0,0,0,0,0,0,0,0,0,0,0,0,0,0,0,0,0,0,0,0,0,0,0,0,0,0,0,0,0,0,0,0,0,0,0,0,0,0,0,0,0,0,0,0],"id":5,"left_children":[1,3,5,7,9,11,13,15,17,-1,19,21,23,25,27,29,31,33,35,-1,-1,37,39,41,43,45,47,49,51,-1,-1,-1,-1,-1,-1,-1,-1,-1,-1,-1,-1,-1,-1,-1,-1,-1,-1,-1,-1,-1,-1,-1,-1],"loss_changes":[1.1653351E4,5.876287E3,4.828527E3,6.4269873E3,1.608291E2,1.5384961E2,7.239135E3,4.4537666E3,1.02262E4,0E0,2.9872559E1,1.3722119E2,9.307031E1,3.396219E3,1.3470898E2,7.5833076E3,4.1369336E2,2.3407861E2,1.752874E4,0E0,0E0,1.4224512E2,3.8984497E1,4.72771E1,3.1668701E1,4.430713E1,2.3116096E3,1.194893E2,1.5957617E2,0E0,0E0,0E0,0E0,0E0,0E0,0E0,0E0,0E0,0E0,0E0,0E0,0E0,0E0,0E0,0E0,0E0,0E0,0E0,0E0,0E0,0E0,0E0,0E0],"parents":[2147483647,0,0,1,1,2,2,3,3,4,4,5,5,6,6,7,7,8,8,10,10,11,11,12,12,13,13,14,14,15,15,16,16,17,17,18,18,21,21,22,22,23,23,24,24,25,25,26,26,27,27,28,28],"right_children":[2,4,6,8,10,12,14,16,18,-1,20,22,24,26,28,30,32,34,36,-1,-1,38,40,42,44,46,48,50,52,-1,-1,-1,-1,-1,-1,-1,-1,-1,-1,-1,-1,-1,-1,-1,-1,-1,-1,-1,-1,-1,-1,-1,-1],"split_conditions":[5.7239544E-1,5.395997E-1,8.0886847E-1,-1.8821476E0,6.023315E-1,-2.5328085E-2,1.0178914E0,-1.9472389E0,-1.1790663E0,-5.504672E-2,1.5067805E0,6.5177673E-1,1.5295774E-1,8.492895E-1,-2.6926904E0,-2.4622483E0,-2.0965748E0,-1.6910094E0,-5.1276135E-1,5.4031637E-2,-4.1787207E-2,1.6856271E0,-1.3094287E0,-1.0541847E-1,1.4536523E0,5.618491E-1,-5.710534E-1,1.3274602E0,-9.637351E-1,5.5093765E-2,-2.1349207E-2,2.9581454E-2,5.1384784E-2,-2.4561878E-2,-3.7815392E-2,4.6623543E-2,1.2280392E-4,-2.6161827E-2,-1.1901742E-2,-2.686593E-2,-3.855938E-2,-2.7191995E-2,-3.750527E-2,-4.083218E-2,-2.6873978E-2,-4.8540905E-2,5.17786E-2,-1.2691165E-2,1.2536254E-2,4.2771447E-2,-2.1685077E-2,-3.82745E-2,-2.5165336E-2],"split_indices":[2,2,2,2,1,11,2,1,2,0,1,2,5,2,6,2,2,2,2,0,0,10,5,8,10,1,10,2,10,0,0,0,0,0,0,0,0,0,0,0,0,0,0,0,0,0,0,0,0,0,0,0,0],"split_type":[0,0,0,0,0,0,0,0,0,0,0,0,0,0,0,0,0,0,0,0,0,0,0,0,0,0,0,0,0,0,0,0,0,0,0,0,0,0,0,0,0,0,0,0,0,0,0,0,0,0,0,0,0],"sum_hessian":[1.2331219E5,8.547406E4,3.783812E4,8.3153516E4,2.3205474E3,1.3008929E4,2.4829193E4,1.0062242E4,7.309127E4,1.1497258E1,2.30905E3,9.218014E3,3.790915E3,1.5056944E4,9.77225E3,4.9832324E3,5.07901E3,9.925803E3,6.3165473E4,2.3068008E3,2.2493894E0,7.889741E3,1.3282723E3,2.239961E3,1.5509542E3,1.4035085E3,1.3653436E4,1.0222704E2,9.670022E3,1.8666655E3,3.1165671E3,9.739794E2,4.1050303E3,8.525772E3,1.40003E3,8.416523E3,5.474895E4,7.19718E3,6.9256067E2,3.6596075E2,9.623116E2,1.7040825E3,5.358784E2,1.3783344E3,1.726199E2,3.238564E0,1.40027E3,5.420181E3,8.233255E3,4.707278E1,5.5154266E1,9.2802185E2,8.742001E3],"tree_param":{"num_deleted":"0","num_feature":"12","num_nodes":"53","size_leaf_vector":"1"}},{"base_weights":[5.9647327E-3,-1.7447819E-1,3.6733037E-1,-1.6676237E-1,-1.280337E0,4.063992E-1,-1.1303645E0,-4.1828102E-1,-1.3300885E-1,-1.4913392E0,-1.8165588E-1,1.6240692E-1,5.461186E-1,-1.3396838E0,-1.1934151E-1,-5.017405E-2,-5.1643527E-1,-7.539047E-1,-1.1930696E-1,-4.0526885E-1,-1.5559512E0,5.3286815E-1,-1.3029771E0,2.1046142E-1,-1.5212164E0,2.9124218E-1,7.334199E-1,-1.5072209E0,-9.47943E-1,7.794649E-1,-9.839747E-1,-5.659712E-3,5.794648E-3,-1.1583427E-2,-2.0230483E-2,-8.948506E-3,-2.7372481E-2,-7.918327E-4,-6.644592E-3,1.8811634E-2,-3.49036E-2,-9.798022E-3,-4.8373014E-2,-1.731027E-2,3.7585035E-2,-4.669229E-2,3.693237E-2,-7.2792517E-3,7.6785726E-3,-5.0002225E-2,-2.1972392E-2,-2.4808727E-3,9.821201E-3,1.3687999E-2,2.8968165E-2,-3.145877E-2,-5.062807E-2,-5.8993053E-2,-2.2659011E-2,-5.190286E-2,2.8723871E-2,-4.847893E-2,2.5060312E-3],"categories":[],"categories_nodes":[],"categories_segments":[],"categories_sizes":[],"default_left":[0,0,0,0,0,0,0,0,0,0,0,0,0,0,0,0,0,0,0,0,0,0,0,0,0,0,0,0,0,0,0,0,0,0,0,0,0,0,0,0,0,0,0,0,0,0,0,0,0,0,0,0,0,0,0,0,0,0,0,0,0,0,0],"id":6,"left_children":[1,3,5,7,9,11,13,15,17,19,21,23,25,27,29,31,33,35,37,39,41,43,45,47,49,51,53,55,57,59,61,-1,-1,-1,-1,-1,-1,-1,-1,-1,-1,-1,-1,-1,-1,-1,-1,-1,-1,-1,-1,-1,-1,-1,-1,-1,-1,-1,-1,-1,-1,-1,-1],"loss_changes":[8.0287764E3,7.0050684E2,2.3999004E3,6.923164E2,1.3160632E2,1.3623394E3,2.2051868E2,3.4860986E2,6.1165344E2,3.2847656E1,7.5037605E1,1.1778014E3,1.2129375E3,5.5264282E1,1.406203E2,6.852153E1,1.5650977E2,1.11842834E2,6.67931E2,2.2755049E1,3.0715698E1,4.6577286E1,2.529535E1,2.9173938E2,4.5153442E1,1.4548499E2,9.421284E2,4.8141235E1,4.9814194E1,4.1320408E1,6.2314835E1,0E0,0E0,0E0,0E0,0E0,0E0,0E0,0E0,0E0,0E0,0E0,0E0,0E0,0E0,0E0,0E0,0E0,0E0,0E0,0E0,0E0,0E0,0E0,0E0,0E0,0E0,0E0,0E0,0E0,0E0,0E0,0E0],"parents":[2147483647,0,0,1,1,2,2,3,3,4,4,5,5,6,6,7,7,8,8,9,9,10,10,11,11,12,12,13,13,14,14,15,15,16,16,17,17,18,18,19,19,20,20,21,21,22,22,23,23,24,24,25,25,26,26,27,27,28,28,29,29,30,30],"right_children":[2,4,6,8,10,12,14,16,18,20,22,24,26,28,30,32,34,36,38,40,42,44,46,48,50,52,54,56,58,60,62,-1,-1,-1,-1,-1,-1,-1,-1,-1,-1,-1,-1,-1,-1,-1,-1,-1,-1,-1,-1,-1,-1,-1,-1,-1,-1,-1,-1,-1,-1,-1,-1],"split_conditions":[5.208801E-1,2.270344E0,2.270344E0,-1.1705086E0,1.2363327E0,-3.8231143E-1,1.9096445E0,-1.6287065E0,-1.7298491E0,-2.2393594E0,2.6991005E0,1.1245042E0,9.8784953E-1,1.1257095E0,2.6991005E0,-1.3983223E0,-2.0615494E-1,-1.2389286E0,5.641452E-2,-2.3656987E-1,-8.892002E-1,1.8586992E0,2.5225568E0,-9.5113236E-1,-4.7851336E-1,-4.1112936E-1,-4.592022E-1,-6.531921E-1,-6.259607E-2,-9.153334E-1,2.1977258E0,-5.659712E-3,5.794648E-3,-1.1583427E-2,-2.0230483E-2,-8.948506E-3,-2.7372481E-2,-7.918327E-4,-6.644592E-3,1.8811634E-2,-3.49036E-2,-9.798022E-3,-4.8373014E-2,-1.731027E-2,3.7585035E-2,-4.669229E-2,3.693237E-2,-7.2792517E-3,7.6785726E-3,-5.0002225E-2,-2.1972392E-2,-2.4808727E-3,9.821201E-3,1.3687999E-2,2.8968165E-2,-3.145877E-2,-5.062807E-2,-5.8993053E-2,-2.2659011E-2,-5.190286E-2,2.8723871E-2,-4.847893E-2,2.5060312E-3],"split_indices":[7,3,3,3,0,8,8,7,0,7,3,3,7,8,3,3,5,7,8,5,8,8,11,3,8,3,10,0,0,5,8,0,0,0,0,0,0,0,0,0,0,0,0,0,0,0,0,0,0,0,0,0,0,0,0,0,0,0,0,0,0,0,0],"split_type":[0,0,0,0,0,0,0,0,0,0,0,0,0,0,0,0,0,0,0,0,0,0,0,0,0,0,0,0,0,0,0,0,0,0,0,0,0,0,0,0,0,0,0,0,0,0,0,0,0,0,0,0,0,0,0,0,0,0,0,0,0,0,0],"sum_hessian":[1.2312768E5,8.2121805E4,4.1005867E4,8.155394E4,5.67868E2,3.9964094E4,1.0417731E3,9.648147E3,7.190579E4,4.7607935E2,9.178866E1,1.4552756E4,2.541134E4,8.6281354E2,1.7895949E2,2.0313833E3,7.6167646E3,1.551385E3,7.035441E4,2.7140715E1,4.4893863E2,5.6384396E1,3.5404266E1,1.4149764E4,4.0299188E2,1.0765028E4,1.4646311E4,6.0235504E2,2.6045853E2,8.779404E1,9.116545E1,1.2947448E3,7.366385E2,4.1748516E3,3.4419133E3,4.011657E2,1.1502192E3,3.6848785E4,3.350562E4,1.1565881E1,1.5574834E1,2.0018356E1,4.2892026E2,2.2263012E1,3.4121384E1,3.253611E1,2.8681552E0,1.2906085E3,1.2859155E4,3.3928503E2,6.3706875E1,9.483929E2,9.816636E3,6.6779717E3,7.968339E3,1.719667E2,4.303883E2,3.996385E1,2.2049467E2,5.2371063E0,8.255693E1,5.6941193E1,3.4224255E1],"tree_param":{"num_deleted":"0","num_feature":"12","num_nodes":"63","size_leaf_vector":"1"}},{"base_weights":[-3.3744576E-4,1.9673254E-1,-4.462031E-1,1.5192308E-1,1.7319355E0,-9.1131556E-1,-2.0142283E-1,8.908872E-1,5.0028145E-2,1.7517339E0,-5.559954E-1,-1.0973572E0,6.458264E-2,2.1498875E-1,-8.420469E-1,3.5077578E-1,1.6461581E0,-8.5309416E-1,1.916348E-1,-4.338354E-2,1.7553313E0,-5.6837857E-2,5.5457205E-1,-8.6853826E-1,-1.284356E0,1.4365529E0,-1.0060314E0,1.6750381E0,7.086051E-2,-9.90528E-1,5.044407E-1,3.8121838E-2,-2.633839E-2,5.074406E-2,-3.2781973E-2,-3.0182257E-2,1.8371396E-2,4.5254458E-2,-4.1999968E-4,5.2807685E-2,3.225671E-2,3.0729868E-2,-3.844846E-2,-2.8430754E-2,3.177582E-2,-3.5202004E-2,-4.2913664E-2,5.2744083E-2,1.2526002E-2,-3.7707258E-3,-4.1049786E-2,5.0728112E-2,-5.1693458E-2,-1.2195332E-2,9.762272E-3,-2.7819652E-2,-4.4358682E-2,5.1436026E-2,-2.8793432E-2],"categories":[],"categories_nodes":[],"categories_segments":[],"categories_sizes":[],"default_left":[0,0,0,0,0,0,0,0,0,0,0,0,0,0,0,0,0,0,0,0,0,0,0,0,0,0,0,0,0,0,0,0,0,0,0,0,0,0,0,0,0,0,0,0,0,0,0,0,0,0,0,0,0,0,0,0,0,0,0],"id":7,"left_children":[1,3,5,7,9,11,13,15,17,19,21,23,25,27,29,31,33,35,37,-1,39,-1,41,43,45,47,49,51,53,55,57,-1,-1,-1,-1,-1,-1,-1,-1,-1,-1,-1,-1,-1,-1,-1,-1,-1,-1,-1,-1,-1,-1,-1,-1,-1,-1,-1,-1],"loss_changes":[1.0786336E4,5.8560127E3,4.2836914E3,6.228304E3,1.1033252E2,2.3556143E3,6.5770063E3,4.088355E3,9.29697E3,3.0075195E1,3.296978E1,4.6514648E2,3.0541023E3,3.144324E3,1.9423066E3,6.6086875E3,5.2047656E2,2.2096768E3,1.7017062E4,0E0,6.1171875E0,0E0,1.21023E1,7.4921924E2,9.549219E1,2.9791125E2,3.7232874E2,7.5444824E1,1.6528652E3,2.685166E2,1.7120372E3,0E0,0E0,0E0,0E0,0E0,0E0,0E0,0E0,0E0,0E0,0E0,0E0,0E0,0E0,0E0,0E0,0E0,0E0,0E0,0E0,0E0,0E0,0E0,0E0,0E0,0E0,0E0,0E0],"parents":[2147483647,0,0,1,1,2,2,3,3,4,4,5,5,6,6,7,7,8,8,9,9,10,10,11,11,12,12,13,13,14,14,15,15,16,16,17,17,18,18,20,20,22,22,23,23,24,24,25,25,26,26,27,27,28,28,29,29,30,30],"right_children":[2,4,6,8,10,12,14,16,18,20,22,24,26,28,30,32,34,36,38,-1,40,-1,42,44,46,48,50,52,54,56,58,-1,-1,-1,-1,-1,-1,-1,-1,-1,-1,-1,-1,-1,-1,-1,-1,-1,-1,-1,-1,-1,-1,-1,-1,-1,-1,-1,-1],"split_conditions":[5.7239544E-1,5.395997E-1,8.0886847E-1,-1.8821476E0,1.0485663E0,3.1966763E-3,1.0178914E0,-2.0965748E0,-1.1790663E0,-1.7033453E0,-4.1767824E-1,-9.933201E-1,-3.9425427E-1,8.492895E-1,-1.7086363E-1,-2.354138E0,2.4634805E0,1.9850413E0,-5.1276135E-1,-4.338354E-2,1.1086323E0,-5.6837857E-2,3.3034004E-2,-3.7851453E-1,1.24309726E-1,-5.714427E-1,-9.894011E-2,1.2088797E0,-6.0390882E-2,-6.4738065E-1,-5.798803E-1,3.8121838E-2,-2.633839E-2,5.074406E-2,-3.2781973E-2,-3.0182257E-2,1.8371396E-2,4.5254458E-2,-4.1999968E-4,5.2807685E-2,3.225671E-2,3.0729868E-2,-3.844846E-2,-2.8430754E-2,3.177582E-2,-3.5202004E-2,-4.2913664E-2,5.2744083E-2,1.2526002E-2,-3.7707258E-3,-4.1049786E-2,5.0728112E-2,-5.1693458E-2,-1.2195332E-2,9.762272E-3,-2.7819652E-2,-4.4358682E-2,5.1436026E-2,-2.8793432E-2],"split_indices":[2,2,2,2,3,9,2,2,2,0,8,3,3,2,9,2,3,9,2,0,9,0,8,9,5,3,3,3,4,3,3,0,0,0,0,0,0,0,0,0,0,0,0,0,0,0,0,0,0,0,0,0,0,0,0,0,0,0,0],"split_type":[0,0,0,0,0,0,0,0,0,0,0,0,0,0,0,0,0,0,0,0,0,0,0,0,0,0,0,0,0,0,0,0,0,0,0,0,0,0,0,0,0,0,0,0,0,0,0,0,0,0,0,0,0,0,0,0,0,0,0],"sum_hessian":[1.227559E5,8.512966E4,3.7626242E4,8.271643E4,2.4132258E3,1.2973081E4,2.4653162E4,1.0022602E4,7.269383E4,2.3927546E3,2.0471123E1,1.0895818E4,2.0772625E3,1.494163E4,9.711533E3,5.8445176E3,4.1780835E3,9.852525E3,6.28413E4,2.2380702E0,2.3905166E3,8.962449E0,1.1508675E1,4.902534E3,5.993284E3,9.1033923E2,1.1669231E3,1.3414847E3,1.3600145E4,8.747217E3,9.6431647E2,3.3421753E3,2.5023425E3,4.110465E3,6.7618805E1,8.92152E3,9.310057E2,8.486837E3,5.4354465E4,2.371754E3,1.8762716E1,9.51625E0,1.9924247E0,4.7096616E3,1.9287251E2,3.4114666E3,2.5818176E3,6.914161E2,2.1892316E2,3.4061334E2,8.263098E2,1.3357375E3,5.747183E0,4.7296763E3,8.870469E3,7.746922E3,1.00029474E3,5.2788196E2,4.3643448E2],"tree_param":{"num_deleted":"0","num_feature":"12","num_nodes":"59","size_leaf_vector":"1"}},{"base_weights":[-4.878443E-3,1.9045117E-1,-4.488475E-1,1.4806308E-1,1.6952525E0,-8.910541E-1,-2.1420228E-1,8.6631227E-1,4.864751E-2,-5.318611E-2,1.7101747E0,-1.0874941E0,1.2387847E-1,1.9325374E-1,-8.3776706E-1,2.2217382E-1,1.500623E0,-8.480473E-1,1.889315E-1,1.7239423E0,2.361358E-1,-7.43072E-1,-1.2753087E0,1.2127899E0,-1.0949831E0,1.6359004E0,5.5940405E-2,-9.8688716E-1,4.9824885E-1,5.2629903E-2,-2.0947814E-2,4.8601434E-2,-3.339947E-2,-2.9476004E-2,1.6177742E-2,4.419265E-2,-3.2191232E-4,5.1827893E-2,-4.178911E-2,4.2191833E-2,-3.010267E-2,-1.7881477E-2,-3.7323955E-2,-3.2630265E-2,-4.0976003E-2,5.1673777E-2,8.51464E-3,-5.317215E-3,-3.7991878E-2,4.999094E-2,-1.220121E-2,1.729086E-2,-8.358412E-3,-2.0898456E-2,-3.764018E-2,5.0131097E-2,-2.867338E-2],"categories":[],"categories_nodes":[],"categories_segments":[],"categories_sizes":[],"default_left":[0,0,0,0,0,0,0,0,0,0,0,0,0,0,0,0,0,0,0,0,0,0,0,0,0,0,0,0,0,0,0,0,0,0,0,0,0,0,0,0,0,0,0,0,0,0,0,0,0,0,0,0,0,0,0,0,0],"id":8,"left_children":[1,3,5,7,9,11,13,15,17,-1,19,21,23,25,27,29,31,33,35,37,39,41,43,45,47,49,51,53,55,-1,-1,-1,-1,-1,-1,-1,-1,-1,-1,-1,-1,-1,-1,-1,-1,-1,-1,-1,-1,-1,-1,-1,-1,-1,-1,-1,-1],"loss_changes":[1.0632987E4,5.431083E3,3.886997E3,5.913592E3,1.23754395E2,2.5893818E3,6.219096E3,4.113841E3,9.15148E3,0E0,4.6740234E1,7.0291895E2,2.7976711E3,2.9325862E3,1.9276753E3,7.0484463E3,1.585501E3,1.8367598E3,1.6129658E4,2.8621094E1,3.427788E1,2.8229297E2,1.18134766E2,5.26595E2,1.5624768E2,8.0739746E1,2.3539119E3,6.755674E2,1.6590247E3,0E0,0E0,0E0,0E0,0E0,0E0,0E0,0E0,0E0,0E0,0E0,0E0,0E0,0E0,0E0,0E0,0E0,0E0,0E0,0E0,0E0,0E0,0E0,0E0,0E0,0E0,0E0,0E0],"parents":[2147483647,0,0,1,1,2,2,3,3,4,4,5,5,6,6,7,7,8,8,10,10,11,11,12,12,13,13,14,14,15,15,16,16,17,17,18,18,19,19,20,20,21,21,22,22,23,23,24,24,25,25,26,26,27,27,28,28],"right_children":[2,4,6,8,10,12,14,16,18,-1,20,22,24,26,28,30,32,34,36,38,40,42,44,46,48,50,52,54,56,-1,-1,-1,-1,-1,-1,-1,-1,-1,-1,-1,-1,-1,-1,-1,-1,-1,-1,-1,-1,-1,-1,-1,-1,-1,-1,-1,-1],"split_conditions":[5.7239544E-1,5.395997E-1,8.0886847E-1,-1.8821476E0,6.023315E-1,3.1966763E-3,1.0178914E0,-1.9472389E0,-1.1790663E0,-5.318611E-2,1.0485663E0,-9.0333986E-1,-2.4237841E-1,8.492895E-1,-1.7086363E-1,-2.4622483E0,2.4634805E0,1.9850413E0,-5.1276135E-1,1.5067805E0,7.278434E-1,6.5177673E-1,-1.0439454E0,-5.714427E-1,-1.1581521E-1,8.7981534E-1,-9.5144644E-2,-6.356673E-1,-5.883179E-1,5.2629903E-2,-2.0947814E-2,4.8601434E-2,-3.339947E-2,-2.9476004E-2,1.6177742E-2,4.419265E-2,-3.2191232E-4,5.1827893E-2,-4.178911E-2,4.2191833E-2,-3.010267E-2,-1.7881477E-2,-3.7323955E-2,-3.2630265E-2,-4.0976003E-2,5.1673777E-2,8.51464E-3,-5.317215E-3,-3.7991878E-2,4.999094E-2,-1.220121E-2,1.729086E-2,-8.358412E-3,-2.0898456E-2,-3.764018E-2,5.0131097E-2,-2.867338E-2],"split_indices":[2,2,2,2,1,9,2,1,2,0,3,7,3,2,9,2,3,9,2,1,1,2,3,3,3,3,7,7,3,0,0,0,0,0,0,0,0,0,0,0,0,0,0,0,0,0,0,0,0,0,0,0,0,0,0,0,0],"split_type":[0,0,0,0,0,0,0,0,0,0,0,0,0,0,0,0,0,0,0,0,0,0,0,0,0,0,0,0,0,0,0,0,0,0,0,0,0,0,0,0,0,0,0,0,0,0,0,0,0,0,0,0,0,0,0,0,0],"sum_hessian":[1.2261043E5,8.5148766E4,3.7461668E4,8.281702E4,2.3317383E3,1.2985923E4,2.4475746E4,1.006835E4,7.274867E4,9.484912E0,2.3222534E3,1.0880024E4,2.1058984E3,1.4803429E4,9.672317E3,4.9961455E3,5.0722036E3,9.840862E3,6.2907812E4,2.3005962E3,2.1657238E1,3.84107E3,7.038954E3,1.1122432E3,9.936552E2,1.2856083E3,1.3517821E4,8.701371E3,9.709464E2,1.8746667E3,3.121479E3,4.850955E3,2.2124873E2,8.971456E3,8.694063E2,8.463985E3,5.444383E4,2.2983474E3,2.2487445E0,1.1070787E1,1.0586451E1,2.9713855E3,8.696846E2,2.2955876E3,4.7433667E3,7.176547E2,3.9458838E2,1.56703E2,8.369522E2,1.2668973E3,1.8710888E1,5.289274E3,8.228547E3,4.177108E3,4.5242627E3,5.3736786E2,4.3357855E2],"tree_param":{"num_deleted":"0","num_feature":"12","num_nodes":"57","size_leaf_vector":"1"}},{"base_weights":[4.3298663E-3,1.8965168E-1,-4.1465613E-1,8.644822E-1,9.899586E-2,-8.504855E-1,-1.8633133E-1,2.4406463E-1,1.4719632E0,-8.004582E-1,2.3568344E-1,-1.0166824E0,2.0295253E-1,2.1279459E-1,-8.058317E-1,5.1450346E-2,-6.326482E-1,1.5755033E0,-1.0050123E0,-9.506224E-1,5.0213754E-1,1.4383868E0,5.8245674E-2,-6.410404E-1,-1.2005167E0,6.034018E-1,-2.8225082E-1,1.6123122E0,7.420643E-2,-9.520496E-1,4.900378E-1,-2.4349544E-2,1.0916227E-2,4.8922643E-2,2.992835E-2,5.274403E-2,-4.2447787E-2,-2.0934194E-2,-3.42692E-2,2.0626156E-2,-3.5019573E-2,4.5596857E-2,-5.4524258E-2,-1.8617515E-2,1.3330589E-2,-1.4656569E-2,-3.4524716E-2,-3.4727648E-2,-4.244552E-2,2.7658027E-2,-3.2936377E-3,-3.0994566E-2,1.0146056E-2,-4.5901205E-2,4.8576776E-2,1.8245427E-2,-7.355242E-3,-1.9829668E-2,-3.5577107E-2,1.8395813E-2,-2.4143418E-2],"categories":[],"categories_nodes":[],"categories_segments":[],"categories_sizes":[],"default_left":[0,0,0,0,0,0,0,0,0,0,0,0,0,0,0,0,0,0,0,0,0,0,0,0,0,0,0,0,0,0,0,0,0,0,0,0,0,0,0,0,0,0,0,0,0,0,0,0,0,0,0,0,0,0,0,0,0,0,0,0,0],"id":9,"left_children":[1,3,5,7,9,11,13,15,17,19,21,23,25,27,29,-1,31,33,35,37,39,41,43,45,47,49,51,53,55,57,59,-1,-1,-1,-1,-1,-1,-1,-1,-1,-1,-1,-1,-1,-1,-1,-1,-1,-1,-1,-1,-1,-1,-1,-1,-1,-1,-1,-1,-1,-1],"loss_changes":[9.531677E3,5.2067637E3,3.745957E3,3.7985063E3,9.224976E3,2.2659873E3,6.108652E3,6.4333823E3,1.3076709E3,1.9366509E3,1.3900017E4,7.7115234E2,3.429821E2,2.9141904E3,1.8346724E3,0E0,5.5789575E2,1.5446582E2,2.3462029E2,4.2932568E2,3.1769043E2,2.2250586E3,1.4877608E4,2.8512598E2,6.740723E1,2.1975912E2,3.7233908E2,3.1889404E1,2.3319238E3,5.913252E2,1.5711508E2,0E0,0E0,0E0,0E0,0E0,0E0,0E0,0E0,0E0,0E0,0E0,0E0,0E0,0E0,0E0,0E0,0E0,0E0,0E0,0E0,0E0,0E0,0E0,0E0,0E0,0E0,0E0,0E0,0E0,0E0],"parents":[2147483647,0,0,1,1,2,2,3,3,4,4,5,5,6,6,7,7,8,8,9,9,10,10,11,11,12,12,13,13,14,14,16,16,17,17,18,18,19,19,20,20,21,21,22,22,23,23,24,24,25,25,26,26,27,27,28,28,29,29,30,30],"right_children":[2,4,6,8,10,12,14,16,18,20,22,24,26,28,30,-1,32,34,36,38,40,42,44,46,48,50,52,54,56,58,60,-1,-1,-1,-1,-1,-1,-1,-1,-1,-1,-1,-1,-1,-1,-1,-1,-1,-1,-1,-1,-1,-1,-1,-1,-1,-1,-1,-1,-1,-1],"split_conditions":[5.7239544E-1,-1.8821476E0,8.0886847E-1,-1.9472389E0,-1.1790663E0,1.1618319E-1,1.0178914E0,-2.4622483E0,2.6320639E0,1.8934306E0,-5.1276135E-1,-9.73287E-1,-1.6739742E-1,8.492895E-1,-1.7086363E-1,5.1450346E-2,1.8934306E0,2.0998933E0,-2.354138E0,-1.8651544E-1,-1.0870417E0,-2.1672149E-1,7.710793E-3,6.5177673E-1,-1.0541847E-1,2.3912117E-1,5.1927024E-1,5.12201E-1,-1.3547967E-1,-6.9795156E-1,8.43379E-1,-2.4349544E-2,1.0916227E-2,4.8922643E-2,2.992835E-2,5.274403E-2,-4.2447787E-2,-2.0934194E-2,-3.42692E-2,2.0626156E-2,-3.5019573E-2,4.5596857E-2,-5.4524258E-2,-1.8617515E-2,1.3330589E-2,-1.4656569E-2,-3.4524716E-2,-3.4727648E-2,-4.244552E-2,2.7658027E-2,-3.2936377E-3,-3.0994566E-2,1.0146056E-2,-4.5901205E-2,4.8576776E-2,1.8245427E-2,-7.355242E-3,-1.9829668E-2,-3.5577107E-2,1.8395813E-2,-2.4143418E-2],"split_indices":[2,2,2,1,2,9,2,2,9,9,2,7,8,2,9,0,9,9,2,7,1,1,2,2,8,7,9,1,7,7,7,0,0,0,0,0,0,0,0,0,0,0,0,0,0,0,0,0,0,0,0,0,0,0,0,0,0,0,0,0,0],"split_type":[0,0,0,0,0,0,0,0,0,0,0,0,0,0,0,0,0,0,0,0,0,0,0,0,0,0,0,0,0,0,0,0,0,0,0,0,0,0,0,0,0,0,0,0,0,0,0,0,0,0,0,0,0,0,0,0,0,0,0,0,0],"sum_hessian":[1.2275414E5,8.5109766E4,3.7644375E4,1.0078457E4,7.5031305E4,1.2940553E4,2.4703822E4,4.9868306E3,5.0916265E3,9.897473E3,6.5133832E4,1.1177204E4,1.763349E3,1.5024581E4,9.679241E3,1.8619309E3,3.1249E3,4.88768E3,2.0394608E2,8.874665E3,1.02280756E3,8.373014E3,5.676082E4,3.6741125E3,7.5030913E3,9.659145E2,7.974345E2,1.3528038E3,1.3671777E4,8.69807E3,9.811712E2,2.649213E3,4.7568707E2,4.459491E3,4.2818893E2,2.5922012E1,1.7802406E2,3.8290728E3,5.0455923E3,9.211029E2,1.0170464E2,8.1690405E3,2.0397346E2,2.0579186E4,3.6181633E4,2.8296555E3,8.4445703E2,6.256411E3,1.24668E3,6.674971E2,2.9841745E2,3.6048874E2,4.3694577E2,2.4862082E0,1.3503176E3,5.1165293E3,8.555248E3,3.8767693E3,4.8213003E3,8.964338E2,8.473743E1],"tree_param":{"num_deleted":"0","num_feature":"12","num_nodes":"61","size_leaf_vector":"1"}},{"base_weights":[-6.20238E-4,1.8194625E-1,-4.1475514E-1,1.4053749E-1,1.6453437E0,-8.48071E-1,-1.882813E-1,8.266375E-1,4.69417E-2,1.6588798E0,-5.295683E-1,-1.0077434E0,1.20176576E-1,2.0190631E-1,-7.9728466E-1,3.1367508E-1,1.5399337E0,-7.7397484E-1,1.7616259E-1,-4.6196528E-2,1.6640091E0,-5.2257854E-2,1.0539464E0,-8.277359E-1,-1.1726625E0,1.1270555E0,-1.2533442E0,1.5744869E0,6.7929074E-2,-9.300589E-1,6.236721E-1,3.553804E-2,-2.4417728E-2,4.751984E-2,-3.459456E-2,-2.7256781E-2,1.7273195E-2,4.200562E-2,-1.6670076E-4,5.009166E-2,3.0324042E-2,4.0271923E-2,1.7968528E-2,-2.7585832E-2,3.1341136E-2,-3.658968E-2,-2.170372E-2,5.1332586E-2,9.416099E-3,-4.1916292E-2,-4.583789E-3,4.8077382E-2,-1.3169556E-2,-9.786294E-3,1.4396648E-2,-2.4568256E-2,-3.8466908E-2,4.451086E-2,-4.3575857E-2],"categories":[],"categories_nodes":[],"categories_segments":[],"categories_sizes":[],"default_left":[0,0,0,0,0,0,0,0,0,0,0,0,0,0,0,0,0,0,0,0,0,0,0,0,0,0,0,0,0,0,0,0,0,0,0,0,0,0,0,0,0,0,0,0,0,0,0,0,0,0,0,0,0,0,0,0,0,0,0],"id":10,"left_children":[1,3,5,7,9,11,13,15,17,19,21,23,25,27,29,31,33,35,37,-1,39,-1,41,43,45,47,49,51,53,55,57,-1,-1,-1,-1,-1,-1,-1,-1,-1,-1,-1,-1,-1,-1,-1,-1,-1,-1,-1,-1,-1,-1,-1,-1,-1,-1,-1,-1],"loss_changes":[9.228328E3,5.1331006E3,3.6646108E3,5.290211E3,6.950244E1,1.9818447E3,5.828423E3,3.6179136E3,7.6902495E3,4.0575684E1,3.0970129E1,3.2569336E2,2.5121707E3,2.7491106E3,1.8076489E3,5.65137E3,4.926709E2,1.7915547E3,1.393191E4,0E0,6.945801E0,0E0,1.4139938E-1,9.058098E2,1.20291016E2,4.972245E2,1.2144824E2,7.590161E1,2.2118716E3,3.4174902E2,1.4647194E3,0E0,0E0,0E0,0E0,0E0,0E0,0E0,0E0,0E0,0E0,0E0,0E0,0E0,0E0,0E0,0E0,0E0,0E0,0E0,0E0,0E0,0E0,0E0,0E0,0E0,0E0,0E0,0E0],"parents":[2147483647,0,0,1,1,2,2,3,3,4,4,5,5,6,6,7,7,8,8,9,9,10,10,11,11,12,12,13,13,14,14,15,15,16,16,17,17,18,18,20,20,22,22,23,23,24,24,25,25,26,26,27,27,28,28,29,29,30,30],"right_children":[2,4,6,8,10,12,14,16,18,20,22,24,26,28,30,32,34,36,38,-1,40,-1,42,44,46,48,50,52,54,56,58,-1,-1,-1,-1,-1,-1,-1,-1,-1,-1,-1,-1,-1,-1,-1,-1,-1,-1,-1,-1,-1,-1,-1,-1,-1,-1,-1,-1],"split_conditions":[5.7239544E-1,5.395997E-1,8.0886847E-1,-1.8821476E0,1.3101302E0,8.5646294E-2,1.0178914E0,-2.0965748E0,-1.1790663E0,-1.7033453E0,4.1669303E-1,-9.5113236E-1,-1.1581521E-1,8.492895E-1,-3.650129E-2,-2.354138E0,2.4634805E0,1.9850413E0,-5.1276135E-1,-4.6196528E-2,1.1086323E0,-5.2257854E-2,4.2934203E-1,-3.7851453E-1,-1.1284353E-1,-5.714427E-1,1.7163166E0,6.2668896E-1,-1.4783283E-1,-8.667569E-1,-3.3519143E-1,3.553804E-2,-2.4417728E-2,4.751984E-2,-3.459456E-2,-2.7256781E-2,1.7273195E-2,4.200562E-2,-1.6670076E-4,5.009166E-2,3.0324042E-2,4.0271923E-2,1.7968528E-2,-2.7585832E-2,3.1341136E-2,-3.658968E-2,-2.170372E-2,5.1332586E-2,9.416099E-3,-4.1916292E-2,-4.583789E-3,4.8077382E-2,-1.3169556E-2,-9.786294E-3,1.4396648E-2,-2.4568256E-2,-3.8466908E-2,4.451086E-2,-4.3575857E-2],"split_indices":[2,2,2,2,3,9,2,2,2,0,0,3,3,2,9,2,3,9,2,0,9,0,0,9,9,3,9,3,10,3,3,0,0,0,0,0,0,0,0,0,0,0,0,0,0,0,0,0,0,0,0,0,0,0,0,0,0,0,0],"split_type":[0,0,0,0,0,0,0,0,0,0,0,0,0,0,0,0,0,0,0,0,0,0,0,0,0,0,0,0,0,0,0,0,0,0,0,0,0,0,0,0,0,0,0,0,0,0,0,0,0,0,0,0,0,0,0,0,0,0,0],"sum_hessian":[1.2205428E5,8.4711E4,3.734328E4,8.2381016E4,2.3299832E3,1.2817198E4,2.4526084E4,9.888193E3,7.249282E4,2.3158074E3,1.4175734E1,1.1002715E4,1.8144835E3,1.494897E4,9.577115E3,5.752651E3,4.135543E3,9.858513E3,6.263431E4,3.2285352E0,2.3125789E3,7.9721265E0,6.203607E0,5.2635835E3,5.739131E3,1.0470835E3,7.674E2,1.3284463E3,1.3620523E4,8.759018E3,8.1809717E2,3.245707E3,2.5069438E3,4.0693762E3,6.616661E1,8.9649375E3,8.9357465E2,8.0958145E3,5.4538492E4,2.2909856E3,2.1593237E1,2.6030266E0,3.6005807E0,5.018093E3,2.4549094E2,5.194042E3,5.4508875E2,6.087642E2,4.3831924E2,6.784435E2,8.895658E1,1.3103677E3,1.8078608E1,6.9609214E3,6.6596016E3,6.660746E3,2.0982712E3,5.786774E2,2.3941978E2],"tree_param":{"num_deleted":"0","num_feature":"12","num_nodes":"59","size_leaf_vector":"1"}},{"base_weights":[-5.649863E-3,1.7098784E-1,-4.060262E-1,1.290862E-1,1.611392E0,-8.244872E-1,-1.8685074E-1,8.049226E-1,3.684293E-2,-5.3032506E-2,1.6273915E0,-4.5774826E-1,-9.479003E-1,1.9304723E-1,-7.8130233E-1,1.9538116E-1,1.4022433E0,-7.7784646E-1,1.6407435E-1,1.6418253E0,2.664634E-1,-3.0554557E-1,-1.0053911E0,-9.2007184E-1,-1.4560229E0,1.5415255E0,5.8039825E-2,-5.440531E-1,-9.929476E-1,4.9705856E-2,-1.9207604E-2,4.567067E-2,-3.5525918E-2,-2.127747E-2,-3.6133714E-2,4.0985733E-2,-4.5910713E-4,4.9360197E-2,-4.205941E-2,-5.4531533E-2,3.989815E-2,-2.607354E-3,-2.5573349E-2,-2.8001137E-2,-4.8214473E-2,-2.536298E-2,-3.141702E-2,-2.9204816E-2,-4.648642E-2,4.699402E-2,-1.9898629E-2,1.554008E-2,-7.984816E-3,-1.35529125E-2,-3.880624E-2,-2.8062902E-2,-3.775882E-2],"categories":[],"categories_nodes":[],"categories_segments":[],"categories_sizes":[],"default_left":[0,0,0,0,0,0,0,0,0,0,0,0,0,0,0,0,0,0,0,0,0,0,0,0,0,0,0,0,0,0,0,0,0,0,0,0,0,0,0,0,0,0,0,0,0,0,0,0,0,0,0,0,0,0,0,0,0],"id":11,"left_children":[1,3,5,7,9,11,13,15,17,-1,19,21,23,25,27,29,31,33,35,37,39,41,43,45,47,49,51,53,55,-1,-1,-1,-1,-1,-1,-1,-1,-1,-1,-1,-1,-1,-1,-1,-1,-1,-1,-1,-1,-1,-1,-1,-1,-1,-1,-1,-1],"loss_changes":[8.587344E3,5.084953E3,3.4090342E3,5.1040527E3,1.3163525E2,5.778369E2,5.5093984E3,3.579689E3,7.467529E3,0E0,4.6135254E1,2.679948E2,1.3382227E2,2.7096995E3,4.7708154E2,5.9457734E3,1.5445303E3,2.8392578E2,1.3436396E4,2.7401367E1,6.0212776E1,3.012763E2,2.8819824E1,8.515381E1,2.0812012E1,7.552881E1,2.0178733E3,3.097749E2,7.5626465E1,0E0,0E0,0E0,0E0,0E0,0E0,0E0,0E0,0E0,0E0,0E0,0E0,0E0,0E0,0E0,0E0,0E0,0E0,0E0,0E0,0E0,0E0,0E0,0E0,0E0,0E0,0E0,0E0],"parents":[2147483647,0,0,1,1,2,2,3,3,4,4,5,5,6,6,7,7,8,8,10,10,11,11,12,12,13,13,14,14,15,15,16,16,17,17,18,18,19,19,20,20,21,21,22,22,23,23,24,24,25,25,26,26,27,27,28,28],"right_children":[2,4,6,8,10,12,14,16,18,-1,20,22,24,26,28,30,32,34,36,38,40,42,44,46,48,50,52,54,56,-1,-1,-1,-1,-1,-1,-1,-1,-1,-1,-1,-1,-1,-1,-1,-1,-1,-1,-1,-1,-1,-1,-1,-1,-1,-1,-1,-1],"split_conditions":[5.7239544E-1,5.395997E-1,8.0886847E-1,-1.8821476E0,6.023315E-1,-1.1621869E0,1.0178914E0,-1.9472389E0,-1.1790663E0,-5.3032506E-2,1.0485663E0,-6.3050556E-1,2.2168668E-1,8.492895E-1,-6.356673E-1,-2.4622483E0,2.4634805E0,-1.7181497E0,-5.1276135E-1,1.5067805E0,-4.1767824E-1,6.5177673E-1,2.0481159E-1,1.7968772E-1,-1.0410801E0,8.6294025E-1,-5.3667493E-2,-6.3050556E-1,-6.4738065E-1,4.9705856E-2,-1.9207604E-2,4.567067E-2,-3.5525918E-2,-2.127747E-2,-3.6133714E-2,4.0985733E-2,-4.5910713E-4,4.9360197E-2,-4.205941E-2,-5.4531533E-2,3.989815E-2,-2.607354E-3,-2.5573349E-2,-2.8001137E-2,-4.8214473E-2,-2.536298E-2,-3.141702E-2,-2.9204816E-2,-4.648642E-2,4.699402E-2,-1.9898629E-2,1.554008E-2,-7.984816E-3,-1.35529125E-2,-3.880624E-2,-2.8062902E-2,-3.775882E-2],"split_indices":[2,2,2,2,1,7,2,1,2,0,3,3,3,2,7,2,3,2,2,1,8,2,3,5,8,3,7,3,3,0,0,0,0,0,0,0,0,0,0,0,0,0,0,0,0,0,0,0,0,0,0,0,0,0,0,0,0],"split_type":[0,0,0,0,0,0,0,0,0,0,0,0,0,0,0,0,0,0,0,0,0,0,0,0,0,0,0,0,0,0,0,0,0,0,0,0,0,0,0,0,0,0,0,0,0,0,0,0,0,0,0,0,0,0,0,0,0],"sum_hessian":[1.2142271E5,8.4252734E4,3.716998E4,8.187214E4,2.3805881E3,1.2775527E4,2.4394451E4,9.831586E3,7.2040555E4,1.0702384E1,2.3698857E3,3.2178757E3,9.557651E3,1.488349E4,9.510962E3,4.8666724E3,4.9649136E3,9.7303E3,6.2310258E4,2.3448103E3,2.5075336E1,2.5192698E3,6.9860583E2,9.06405E3,4.9360168E2,1.3535519E3,1.3529938E4,4.485921E3,5.0250405E3,1.7700194E3,3.0966528E3,4.7449717E3,2.1994145E2,8.384729E3,1.3455708E3,8.0897144E3,5.4220543E4,2.342565E3,2.245444E0,8.232395E0,1.6842941E1,1.8006025E3,7.1866736E2,6.262106E2,7.239527E1,5.7163984E3,3.3476511E3,8.19904E1,4.116113E2,1.3386975E3,1.4854442E1,5.5935E3,7.936438E3,3.9955288E3,4.9039236E2,4.1344805E3,8.905604E2],"tree_param":{"num_deleted":"0","num_feature":"12","num_nodes":"57","size_leaf_vector":"1"}},{"base_weights":[-9.1831275E-4,-5.7713294E-1,1.1737702E-1,-8.110812E-1,-4.2000547E-1,-2.3026358E-2,4.6223885E-1,-7.0360327E-1,-1.0147245E0,-1.7675811E-1,-5.290757E-1,1.803414E-1,-2.0977272E-1,5.1375204E-1,-1.1873935E0,-9.98848E-1,-6.1505663E-1,-7.3703164E-1,-1.1208833E0,-4.7009188E-1,-3.655796E-4,-6.8618864E-1,-4.3470556E-1,2.4431255E-1,-6.15516E-1,-3.4224468E-1,4.3971115E-1,1.2994747E-1,6.4103967E-1,-1.4083754E0,-5.9188794E-2,-1.6354712E-2,-3.7400067E-2,-2.5679477E-2,-1.3531895E-2,-2.0089773E-2,-5.2387204E-2,-3.6814936E-2,-2.872406E-2,1.6260506E-3,-1.8005086E-2,2.6559206E-3,-1.5532385E-2,-1.7222118E-2,-2.893021E-2,-2.3214372E-2,-1.0759329E-2,1.8197916E-3,2.4199363E-2,-3.2721046E-2,-8.084181E-3,-7.1180253E-3,-1.6903564E-2,1.847416E-2,-3.4597278E-2,-3.0553462E-3,1.0557737E-2,3.0189212E-2,1.4920181E-2,-5.034884E-2,-3.2611087E-2,3.027926E-2,-1.6074907E-2],"categories":[],"categories_nodes":[],"categories_segments":[],"categories_sizes":[],"default_left":[0,0,0,0,0,0,0,0,0,0,0,0,0,0,0,0,0,0,0,0,0,0,0,0,0,0,0,0,0,0,0,0,0,0,0,0,0,0,0,0,0,0,0,0,0,0,0,0,0,0,0,0,0,0,0,0,0,0,0,0,0,0,0],"id":12,"left_children":[1,3,5,7,9,11,13,15,17,19,21,23,25,27,29,31,33,35,37,39,41,43,45,47,49,51,53,55,57,59,61,-1,-1,-1,-1,-1,-1,-1,-1,-1,-1,-1,-1,-1,-1,-1,-1,-1,-1,-1,-1,-1,-1,-1,-1,-1,-1,-1,-1,-1,-1,-1,-1],"loss_changes":[8.289866E3,7.6113574E2,4.8856807E3,1.8142822E2,3.2873608E2,2.723413E3,2.4814932E3,1.4187256E2,8.385498E1,1.9860959E2,1.2656958E2,1.7478225E3,3.2164858E3,1.3830156E3,2.2039722E2,1.405227E2,1.6537646E2,5.304541E1,3.4884277E1,9.8336395E1,1.1033945E2,9.9527954E1,1.3767505E2,3.2813936E3,4.197116E2,7.209038E2,1.7773069E3,3.628869E2,1.115415E3,6.2313354E1,7.484177E1,0E0,0E0,0E0,0E0,0E0,0E0,0E0,0E0,0E0,0E0,0E0,0E0,0E0,0E0,0E0,0E0,0E0,0E0,0E0,0E0,0E0,0E0,0E0,0E0,0E0,0E0,0E0,0E0,0E0,0E0,0E0,0E0],"parents":[2147483647,0,0,1,1,2,2,3,3,4,4,5,5,6,6,7,7,8,8,9,9,10,10,11,11,12,12,13,13,14,14,15,15,16,16,17,17,18,18,19,19,20,20,21,21,22,22,23,23,24,24,25,25,26,26,27,27,28,28,29,29,30,30],"right_children":[2,4,6,8,10,12,14,16,18,20,22,24,26,28,30,32,34,36,38,40,42,44,46,48,50,52,54,56,58,60,62,-1,-1,-1,-1,-1,-1,-1,-1,-1,-1,-1,-1,-1,-1,-1,-1,-1,-1,-1,-1,-1,-1,-1,-1,-1,-1,-1,-1,-1,-1,-1,-1],"split_conditions":[-8.487827E-1,-1.1633128E0,7.195505E-1,-1.6944513E-2,-5.9180635E-1,5.641452E-2,2.270344E0,-6.0390882E-2,-8.865732E-1,-6.0390882E-2,-1.022843E0,4.8325065E-1,1.4445382E0,-2.5636694E-1,1.9340458E0,-1.746284E0,-1.4259301E0,-3.4721497E-1,1.2409045E0,-1.9770703E0,-1.255612E-1,-6.6763717E-1,-6.0390882E-2,-6.39845E-2,-2.734081E-1,1.0333631E0,2.1256788E0,-6.0390882E-2,2.7231196E-1,8.0064875E-1,2.4634805E0,-1.6354712E-2,-3.7400067E-2,-2.5679477E-2,-1.3531895E-2,-2.0089773E-2,-5.2387204E-2,-3.6814936E-2,-2.872406E-2,1.6260506E-3,-1.8005086E-2,2.6559206E-3,-1.5532385E-2,-1.7222118E-2,-2.893021E-2,-2.3214372E-2,-1.0759329E-2,1.8197916E-3,2.4199363E-2,-3.2721046E-2,-8.084181E-3,-7.1180253E-3,-1.6903564E-2,1.847416E-2,-3.4597278E-2,-3.0553462E-3,1.0557737E-2,3.0189212E-2,1.4920181E-2,-5.034884E-2,-3.2611087E-2,3.027926E-2,-1.6074907E-2],"split_indices":[9,9,7,5,5,8,3,4,7,4,9,3,9,9,8,6,9,8,4,6,8,8,4,9,8,8,3,4,3,8,3,0,0,0,0,0,0,0,0,0,0,0,0,0,0,0,0,0,0,0,0,0,0,0,0,0,0,0,0,0,0,0,0],"split_type":[0,0,0,0,0,0,0,0,0,0,0,0,0,0,0,0,0,0,0,0,0,0,0,0,0,0,0,0,0,0,0,0,0,0,0,0,0,0,0,0,0,0,0,0,0,0,0,0,0,0,0,0,0,0,0,0,0,0,0,0,0,0,0],"sum_hessian":[1.2161539E5,2.0713994E4,1.009014E5,8.320852E3,1.2393143E4,7.170793E4,2.919347E4,5.4493003E3,2.8715515E3,3.837471E3,8.555671E3,3.4326367E4,3.738156E4,2.8310117E4,8.833536E2,1.2548663E3,4.1944336E3,7.9635944E2,2.0751921E3,1.4404292E3,2.3970417E3,3.2081997E3,5.3474717E3,3.177313E4,2.5532368E3,3.1049102E4,6.332456E3,7.051144E3,2.1258973E4,7.384624E2,1.4489119E2,4.4443314E2,8.104332E2,1.697048E3,2.4973857E3,7.4808264E2,4.8276756E1,1.2534606E3,8.217315E2,2.8644833E2,1.153981E3,2.046279E3,3.5076254E2,2.2887207E3,9.1947906E2,9.7800757E2,4.369464E3,2.3951799E4,7.8213325E3,1.0749572E3,1.4782797E3,2.1057867E4,9.991234E3,5.7026646E3,6.297915E2,3.449577E3,3.6015674E3,6.0004937E3,1.52584795E4,3.9904697E2,3.3941544E2,4.4351017E1,1.0054018E2],"tree_param":{"num_deleted":"0","num_feature":"12","num_nodes":"63","size_leaf_vector":"1"}},{"base_weights":[5.0747744E-4,-5.597813E-1,1.14960074E-1,-8.564968E-1,-4.348241E-1,-4.6292953E-2,4.1191322E-1,-5.1504594E-1,-9.1755754E-1,-5.988553E-1,-3.0788383E-1,3.0975765E-1,-1.4940056E-1,4.6252686E-1,-9.598886E-1,-6.570563E-1,8.683981E-2,-1.3276623E0,-8.3357483E-1,-3.018523E-2,-6.5263957E-1,6.981513E-2,-4.3093112E-1,8.429908E-2,1.516307E0,-2.1189861E-1,5.105091E-1,3.5581622E-1,9.9536943E-1,-1.5827763E0,-4.787208E-1,-1.0485685E-2,-2.9871302E-2,-6.0488656E-3,2.1849431E-2,-3.4435835E-2,-4.6032E-2,-2.7580198E-2,-1.8478977E-2,3.201615E-3,-1.9464709E-2,-7.152736E-3,-2.087532E-2,9.944614E-3,-1.021541E-2,-1.447296E-2,6.9938425E-4,1.3858252E-2,-3.7682904E-3,2.9787313E-2,5.2256484E-2,-1.6020015E-3,-1.1298803E-2,2.3438761E-2,-3.7753202E-2,1.443795E-2,3.506142E-3,4.48823E-2,2.3782799E-2,-4.8303295E-2,-1.6213117E-2,7.5485236E-3,-3.1732295E-2],"categories":[],"categories_nodes":[],"categories_segments":[],"categories_sizes":[],"default_left":[0,0,0,0,0,0,0,0,0,0,0,0,0,0,0,0,0,0,0,0,0,0,0,0,0,0,0,0,0,0,0,0,0,0,0,0,0,0,0,0,0,0,0,0,0,0,0,0,0,0,0,0,0,0,0,0,0,0,0,0,0,0,0],"id":13,"left_children":[1,3,5,7,9,11,13,15,17,19,21,23,25,27,29,31,33,35,37,39,41,43,45,47,49,51,53,55,57,59,61,-1,-1,-1,-1,-1,-1,-1,-1,-1,-1,-1,-1,-1,-1,-1,-1,-1,-1,-1,-1,-1,-1,-1,-1,-1,-1,-1,-1,-1,-1,-1,-1],"loss_changes":[7.784049E3,7.630381E2,4.826587E3,1.2671924E2,3.015381E2,2.398205E3,2.4633594E3,7.93537E1,1.7708789E2,1.9329907E2,3.7976892E2,3.990354E3,2.0893157E3,1.9448745E3,3.7764136E2,7.783966E1,3.308257E1,3.0865479E1,7.963135E1,4.6413673E1,1.0317236E2,2.1578654E2,1.4419275E2,9.799134E2,2.7094678E2,1.2081624E3,2.1003127E3,8.543694E2,5.778379E2,1.4794067E1,3.0209113E2,0E0,0E0,0E0,0E0,0E0,0E0,0E0,0E0,0E0,0E0,0E0,0E0,0E0,0E0,0E0,0E0,0E0,0E0,0E0,0E0,0E0,0E0,0E0,0E0,0E0,0E0,0E0,0E0,0E0,0E0,0E0,0E0],"parents":[2147483647,0,0,1,1,2,2,3,3,4,4,5,5,6,6,7,7,8,8,9,9,10,10,11,11,12,12,13,13,14,14,15,15,16,16,17,17,18,18,19,19,20,20,21,21,22,22,23,23,24,24,25,25,26,26,27,27,28,28,29,29,30,30],"right_children":[2,4,6,8,10,12,14,16,18,20,22,24,26,28,30,32,34,36,38,40,42,44,46,48,50,52,54,56,58,60,62,-1,-1,-1,-1,-1,-1,-1,-1,-1,-1,-1,-1,-1,-1,-1,-1,-1,-1,-1,-1,-1,-1,-1,-1,-1,-1,-1,-1,-1,-1,-1,-1],"split_conditions":[-8.487827E-1,-1.2427087E0,5.4299146E-1,-1.360923E0,3.7752137E-2,-5.714427E-1,2.1256788E0,-2.5695398E-1,-2.8034297E-1,-1.8497062E0,-1.569823E-1,-1.250583E-1,1.5697395E0,1.465914E0,8.0064875E-1,-9.8511815E-1,-8.163589E-2,-6.922393E-1,-1.1198833E0,-2.9353437E-1,-9.5514095E-1,-5.652274E-1,8.432409E-1,-8.048682E-1,8.5646294E-2,2.3012424E-1,2.1256788E0,5.1700085E-1,1.1751295E0,1.8120942E0,2.4111843E0,-1.0485685E-2,-2.9871302E-2,-6.0488656E-3,2.1849431E-2,-3.4435835E-2,-4.6032E-2,-2.7580198E-2,-1.8478977E-2,3.201615E-3,-1.9464709E-2,-7.152736E-3,-2.087532E-2,9.944614E-3,-1.021541E-2,-1.447296E-2,6.9938425E-4,1.3858252E-2,-3.7682904E-3,2.9787313E-2,5.2256484E-2,-1.6020015E-3,-1.1298803E-2,2.3438761E-2,-3.7753202E-2,1.443795E-2,3.506142E-3,4.48823E-2,2.3782799E-2,-4.8303295E-2,-1.6213117E-2,7.5485236E-3,-3.1732295E-2],"split_indices":[9,9,7,6,10,3,3,11,10,6,6,9,9,9,8,8,0,6,3,8,7,8,0,8,9,3,3,3,3,10,9,0,0,0,0,0,0,0,0,0,0,0,0,0,0,0,0,0,0,0,0,0,0,0,0,0,0,0,0,0,0,0,0],"split_type":[0,0,0,0,0,0,0,0,0,0,0,0,0,0,0,0,0,0,0,0,0,0,0,0,0,0,0,0,0,0,0,0,0,0,0,0,0,0,0,0,0,0,0,0,0,0,0,0,0,0,0,0,0,0,0,0,0,0,0,0,0,0,0],"sum_hessian":[1.2138382E5,2.0588998E4,1.0079482E5,6.0995454E3,1.4489452E4,6.532341E4,3.547141E4,9.2672833E2,5.172817E3,6.3195996E3,8.169852E3,1.4668438E4,5.0654973E4,3.4209875E4,1.2615355E3,7.49741E2,1.769873E2,8.767341E2,4.296083E3,5.461911E2,5.7734087E3,2.0076664E3,6.162186E3,1.2359907E4,2.3085308E3,4.6273254E4,4.381721E3,2.8503285E4,5.7065913E3,5.488027E2,7.127328E2,3.9398923E2,3.5575183E2,1.2255878E2,5.4428535E1,4.7242007E2,4.0431403E2,3.0792493E3,1.2168336E3,4.47898E2,9.8293106E1,5.4592896E2,5.22748E3,1.2260137E3,7.816528E2,5.534624E3,6.27562E2,4.415275E3,7.944633E3,6.969111E2,1.6116198E3,2.3583215E4,2.2690037E4,3.8005134E3,5.8120764E2,1.8689871E4,9.813412E3,1.6420996E3,4.0644915E3,5.342482E2,1.4554447E1,3.1543307E2,3.972997E2],"tree_param":{"num_deleted":"0","num_feature":"12","num_nodes":"63","size_leaf_vector":"1"}},{"base_weights":[4.4137132E-3,1.6965014E-1,-3.6985776E-1,1.317168E-1,1.5647507E0,-7.6930946E-1,-1.6123919E-1,7.744112E-1,4.5669217E-2,-5.1380195E-2,1.5815696E0,-2.4864084E-1,-8.632123E-1,1.9480994E-1,-7.1855515E-1,1.851117E-1,1.3686146E0,-7.289574E-1,1.6717604E-1,1.5965391E0,1.05834864E-1,-5.650658E-4,-8.9153415E-1,-7.741544E-1,-1.0678152E0,1.5130625E0,6.742379E-2,-5.4246104E-1,-9.7418094E-1,4.8295874E-2,-1.842908E-2,4.4940952E-2,-1.9129733E-2,-1.8466441E-2,-3.1813364E-2,4.022027E-2,-2.439829E-4,4.7993865E-2,-3.9802726E-2,-2.9211545E-2,2.9307375E-2,7.488275E-3,-1.6876051E-2,5.2304203E-3,-2.9149126E-2,-1.645735E-2,-2.5608808E-2,-2.9850353E-2,-4.0069524E-2,4.6092823E-2,-7.135093E-3,1.7952617E-2,-6.159758E-3,-1.3932406E-2,-3.6452778E-2,-2.7043346E-2,-3.7633788E-2],"categories":[],"categories_nodes":[],"categories_segments":[],"categories_sizes":[],"default_left":[0,0,0,0,0,0,0,0,0,0,0,0,0,0,0,0,0,0,0,0,0,0,0,0,0,0,0,0,0,0,0,0,0,0,0,0,0,0,0,0,0,0,0,0,0,0,0,0,0,0,0,0,0,0,0,0,0],"id":14,"left_children":[1,3,5,7,9,11,13,15,17,-1,19,21,23,25,27,29,31,33,35,37,39,41,43,45,47,49,51,53,55,-1,-1,-1,-1,-1,-1,-1,-1,-1,-1,-1,-1,-1,-1,-1,-1,-1,-1,-1,-1,-1,-1,-1,-1,-1,-1,-1,-1],"loss_changes":[7.52784E3,4.468618E3,3.106603E3,4.546333E3,1.2591846E2,6.251245E2,4.8600728E3,3.398775E3,6.8243203E3,0E0,4.8967773E1,3.1190097E2,1.966123E2,2.5095854E3,4.2924854E2,5.553165E3,1.2558809E3,3.6893018E2,1.2893504E4,2.3083008E1,2.2962772E1,1.9867401E2,4.6661102E1,1.3493652E2,6.2695312E1,5.423828E1,1.9740271E3,2.9633276E2,7.8235596E1,0E0,0E0,0E0,0E0,0E0,0E0,0E0,0E0,0E0,0E0,0E0,0E0,0E0,0E0,0E0,0E0,0E0,0E0,0E0,0E0,0E0,0E0,0E0,0E0,0E0,0E0,0E0,0E0],"parents":[2147483647,0,0,1,1,2,2,3,3,4,4,5,5,6,6,7,7,8,8,10,10,11,11,12,12,13,13,14,14,15,15,16,16,17,17,18,18,19,19,20,20,21,21,22,22,23,23,24,24,25,25,26,26,27,27,28,28],"right_children":[2,4,6,8,10,12,14,16,18,-1,20,22,24,26,28,30,32,34,36,38,40,42,44,46,48,50,52,54,56,-1,-1,-1,-1,-1,-1,-1,-1,-1,-1,-1,-1,-1,-1,-1,-1,-1,-1,-1,-1,-1,-1,-1,-1,-1,-1,-1,-1],"split_conditions":[5.7239544E-1,5.395997E-1,8.0886847E-1,-1.8821476E0,6.023315E-1,-1.5418886E0,1.0178914E0,-1.9472389E0,-1.1790663E0,-5.1380195E-2,1.0485663E0,6.5177673E-1,-5.714427E-1,8.492895E-1,-4.0126348E-1,-2.4622483E0,2.270344E0,1.352318E0,-5.1276135E-1,1.5067805E0,4.1669303E-1,-7.233186E-1,-2.556927E0,-9.0333986E-1,6.1373286E-2,8.7981534E-1,-2.1160153E-1,-5.798803E-1,-6.726933E-1,4.8295874E-2,-1.842908E-2,4.4940952E-2,-1.9129733E-2,-1.8466441E-2,-3.1813364E-2,4.022027E-2,-2.439829E-4,4.7993865E-2,-3.9802726E-2,-2.9211545E-2,2.9307375E-2,7.488275E-3,-1.6876051E-2,5.2304203E-3,-2.9149126E-2,-1.645735E-2,-2.5608808E-2,-2.9850353E-2,-4.0069524E-2,4.6092823E-2,-7.135093E-3,1.7952617E-2,-6.159758E-3,-1.3932406E-2,-3.6452778E-2,-2.7043346E-2,-3.7633788E-2],"split_indices":[2,2,2,2,1,7,2,1,2,0,3,2,3,2,7,2,3,3,2,1,0,3,5,7,3,3,7,3,3,0,0,0,0,0,0,0,0,0,0,0,0,0,0,0,0,0,0,0,0,0,0,0,0,0,0,0,0],"split_type":[0,0,0,0,0,0,0,0,0,0,0,0,0,0,0,0,0,0,0,0,0,0,0,0,0,0,0,0,0,0,0,0,0,0,0,0,0,0,0,0,0,0,0,0,0,0,0,0,0,0,0,0,0,0,0,0,0],"sum_hessian":[1.2172243E5,8.444258E4,3.7279855E4,8.22084E4,2.2341848E3,1.2789161E4,2.4490691E4,9.705967E3,7.250243E4,1.0891927E1,2.2232927E3,1.9546637E3,1.0834497E4,1.4944097E4,9.546596E3,4.8737505E3,4.8322163E3,9.829934E3,6.2672496E4,2.2008855E3,2.24072E1,1.4111418E3,5.43522E2,7.552077E3,3.2824204E3,1.3158788E3,1.3628218E4,5.6544854E3,3.8921106E3,1.7513699E3,3.1223806E3,4.539635E3,2.9258173E2,7.326302E3,2.503631E3,8.144874E3,5.452762E4,2.198889E3,1.9967272E0,9.953586E0,1.2453614E1,9.76836E2,4.3430582E2,3.790949E1,5.0561246E2,1.9695571E3,5.58252E3,2.584589E3,6.9783136E2,1.2986711E3,1.7207676E1,4.6242954E3,9.003923E3,5.068108E3,5.863774E2,3.0935183E3,7.9859216E2],"tree_param":{"num_deleted":"0","num_feature":"12","num_nodes":"57","size_leaf_vector":"1"}},{"base_weights":[2.5123495E-4,1.6304404E-1,-3.7024602E-1,1.2565742E-1,1.5385101E0,-7.6476234E-1,-1.6426122E-1,7.6366746E-1,4.0451124E-2,-5.0079804E-2,1.5535526E0,-9.158255E-1,1.8838972E-1,1.8449706E-1,-7.11147E-1,1.8593383E-1,1.343749E0,-7.2036016E-1,1.5863702E-1,1.5673664E0,-2.6435146E-1,-6.037421E-1,-1.1046499E0,1.1287783E0,-1.1550184E0,1.4865471E0,5.5701613E-2,-8.6016476E-1,3.781252E-1,4.7413465E-2,-1.8243734E-2,4.374562E-2,-3.5652943E-2,-2.5715161E-2,1.8308904E-2,3.9215684E-2,-3.180833E-4,4.7104206E-2,-3.677522E-2,3.417295E-2,-5.2124854E-2,-1.4119707E-2,-3.322988E-2,-1.6149098E-2,-3.398802E-2,4.993165E-2,1.3630358E-2,-3.866303E-2,-7.268764E-3,4.523309E-2,-5.303804E-3,-1.25230085E-2,1.0568237E-2,-1.4368001E-2,-3.0855002E-2,4.3248612E-2,-2.96354E-2],"categories":[],"categories_nodes":[],"categories_segments":[],"categories_sizes":[],"default_left":[0,0,0,0,0,0,0,0,0,0,0,0,0,0,0,0,0,0,0,0,0,0,0,0,0,0,0,0,0,0,0,0,0,0,0,0,0,0,0,0,0,0,0,0,0,0,0,0,0,0,0,0,0,0,0,0,0],"id":15,"left_children":[1,3,5,7,9,11,13,15,17,-1,19,21,23,25,27,29,31,33,35,37,39,41,43,45,47,49,51,53,55,-1,-1,-1,-1,-1,-1,-1,-1,-1,-1,-1,-1,-1,-1,-1,-1,-1,-1,-1,-1,-1,-1,-1,-1,-1,-1,-1,-1],"loss_changes":[7.303814E3,4.326112E3,3.0038843E3,4.4525205E3,1.1001416E2,1.8258921E3,4.6324272E3,3.2336562E3,6.497192E3,0E0,5.6069824E1,6.443281E2,2.1938108E3,2.486986E3,1.5354658E3,5.3557256E3,1.3969785E3,1.7692114E3,1.2156942E4,1.8967773E1,3.8303844E1,2.7633398E2,1.0860742E2,3.682035E2,8.698639E1,4.7389404E1,1.8939935E3,5.33417E2,1.6557903E3,0E0,0E0,0E0,0E0,0E0,0E0,0E0,0E0,0E0,0E0,0E0,0E0,0E0,0E0,0E0,0E0,0E0,0E0,0E0,0E0,0E0,0E0,0E0,0E0,0E0,0E0,0E0,0E0],"parents":[2147483647,0,0,1,1,2,2,3,3,4,4,5,5,6,6,7,7,8,8,10,10,11,11,12,12,13,13,14,14,15,15,16,16,17,17,18,18,19,19,20,20,21,21,22,22,23,23,24,24,25,25,26,26,27,27,28,28],"right_children":[2,4,6,8,10,12,14,16,18,-1,20,22,24,26,28,30,32,34,36,38,40,42,44,46,48,50,52,54,56,-1,-1,-1,-1,-1,-1,-1,-1,-1,-1,-1,-1,-1,-1,-1,-1,-1,-1,-1,-1,-1,-1,-1,-1,-1,-1,-1,-1],"split_conditions":[5.7239544E-1,5.395997E-1,8.0886847E-1,-1.8821476E0,5.9238315E-1,1.1618319E-1,1.0178914E0,-1.9472389E0,-1.1790663E0,-5.0079804E-2,1.0485663E0,-8.537192E-1,-9.894011E-2,8.492895E-1,-2.6858172E-1,-2.4622483E0,2.4634805E0,1.9850413E0,-5.1276135E-1,1.5067805E0,6.956469E-1,6.918293E-1,-1.5333232E0,-5.714427E-1,1.6338669E0,8.966904E-1,-6.460137E-1,-1.011279E0,-5.798803E-1,4.7413465E-2,-1.8243734E-2,4.374562E-2,-3.5652943E-2,-2.5715161E-2,1.8308904E-2,3.9215684E-2,-3.180833E-4,4.7104206E-2,-3.677522E-2,3.417295E-2,-5.2124854E-2,-1.4119707E-2,-3.322988E-2,-1.6149098E-2,-3.398802E-2,4.993165E-2,1.3630358E-2,-3.866303E-2,-7.268764E-3,4.523309E-2,-5.303804E-3,-1.25230085E-2,1.0568237E-2,-1.4368001E-2,-3.0855002E-2,4.3248612E-2,-2.96354E-2],"split_indices":[2,2,2,2,1,9,2,1,2,0,3,7,3,2,9,2,3,9,2,1,1,2,3,3,9,3,10,7,3,0,0,0,0,0,0,0,0,0,0,0,0,0,0,0,0,0,0,0,0,0,0,0,0,0,0,0,0],"split_type":[0,0,0,0,0,0,0,0,0,0,0,0,0,0,0,0,0,0,0,0,0,0,0,0,0,0,0,0,0,0,0,0,0,0,0,0,0,0,0,0,0,0,0,0,0,0,0,0,0,0,0,0,0,0,0,0,0],"sum_hessian":[1.2109392E5,8.412903E4,3.69649E4,8.190388E4,2.2251428E3,1.2678825E4,2.4286072E4,9.648632E3,7.225526E4,9.872408E0,2.2152705E3,1.094432E4,1.7345042E3,1.482963E4,9.456442E3,4.8347603E3,4.813871E3,9.714421E3,6.2540832E4,2.198701E3,1.6569511E1,4.1272017E3,6.817119E3,1.0203892E3,7.1411487E2,1.3339183E3,1.3495711E4,8.318624E3,1.137818E3,1.7537887E3,3.0809717E3,4.606128E3,2.0774333E2,8.80907E3,9.0535126E2,8.031053E3,5.450978E4,2.196957E3,1.7438921E0,8.6016035E0,7.967908E0,3.2664639E3,8.6073785E2,3.2521573E2,6.4919033E3,5.6790894E2,4.524803E2,6.224851E2,9.16298E1,1.3172057E3,1.6712671E1,5.1998174E3,8.295894E3,2.5492185E3,5.769406E3,6.3970886E2,4.981091E2],"tree_param":{"num_deleted":"0","num_feature":"12","num_nodes":"57","size_leaf_vector":"1"}},{"base_weights":[-2.446919E-3,-4.90881E-1,1.150509E-1,-7.522773E-1,-3.513641E-1,-3.4739323E-2,3.942305E-1,-1.0362998E0,-6.5958035E-1,-4.712877E-1,-1.8757644E-1,2.0515186E-1,-2.035217E-1,7.274888E-2,4.8059538E-1,-6.876541E-1,-1.2864298E0,-4.8099568E-1,-8.636991E-1,-6.348707E-1,-3.6707523E-1,5.0067827E-2,-4.097788E-1,3.13733E-2,4.0876082E-1,-3.1177083E-1,4.278918E-1,1.6200747E-1,-5.3658795E-1,3.4049755E-1,5.812917E-1,-1.629735E-2,-3.698595E-2,-3.1575179E-3,-3.9749388E-2,-1.9702042E-2,-6.08451E-3,-1.6860032E-2,-2.9021421E-2,-8.895243E-3,-2.1433767E-2,4.259272E-3,-1.2201505E-2,6.6109523E-3,-5.953477E-3,-1.3919922E-2,5.0233244E-3,9.276808E-3,-3.3571033E-3,2.6018653E-2,9.592771E-3,-5.1042703E-3,-1.3903906E-2,5.808992E-3,1.7811697E-2,-1.5261953E-3,1.4094404E-2,-2.509301E-2,-7.6747634E-3,1.4132574E-2,3.1635603E-3,1.2546734E-2,2.1908168E-2],"categories":[],"categories_nodes":[],"categories_segments":[],"categories_sizes":[],"default_left":[0,0,0,0,0,0,0,0,0,0,0,0,0,0,0,0,0,0,0,0,0,0,0,0,0,0,0,0,0,0,0,0,0,0,0,0,0,0,0,0,0,0,0,0,0,0,0,0,0,0,0,0,0,0,0,0,0,0,0,0,0,0,0],"id":16,"left_children":[1,3,5,7,9,11,13,15,17,19,21,23,25,27,29,31,33,35,37,39,41,43,45,47,49,51,53,55,57,59,61,-1,-1,-1,-1,-1,-1,-1,-1,-1,-1,-1,-1,-1,-1,-1,-1,-1,-1,-1,-1,-1,-1,-1,-1,-1,-1,-1,-1,-1,-1,-1,-1],"loss_changes":[6.9128877E3,8.515713E2,4.060454E3,2.1329883E2,2.9908167E2,2.55869E3,9.4132764E2,1.733667E2,2.2305273E2,1.4965344E2,3.400749E2,9.234536E2,2.5355608E3,3.906424E2,3.7682275E2,6.5217834E1,5.278528E1,1.5982306E2,8.890088E1,9.189172E1,1.08486206E2,1.317772E2,1.0423572E2,5.606469E2,4.901764E2,6.8024585E2,2.1079651E2,4.1048645E2,7.7044495E1,3.4306396E2,3.774077E2,0E0,0E0,0E0,0E0,0E0,0E0,0E0,0E0,0E0,0E0,0E0,0E0,0E0,0E0,0E0,0E0,0E0,0E0,0E0,0E0,0E0,0E0,0E0,0E0,0E0,0E0,0E0,0E0,0E0,0E0,0E0,0E0],"parents":[2147483647,0,0,1,1,2,2,3,3,4,4,5,5,6,6,7,7,8,8,9,9,10,10,11,11,12,12,13,13,14,14,15,15,16,16,17,17,18,18,19,19,20,20,21,21,22,22,23,23,24,24,25,25,26,26,27,27,28,28,29,29,30,30],"right_children":[2,4,6,8,10,12,14,16,18,20,22,24,26,28,30,32,34,36,38,40,42,44,46,48,50,52,54,56,58,60,62,-1,-1,-1,-1,-1,-1,-1,-1,-1,-1,-1,-1,-1,-1,-1,-1,-1,-1,-1,-1,-1,-1,-1,-1,-1,-1,-1,-1,-1,-1,-1,-1],"split_conditions":[-7.8770894E-1,-1.1633128E0,5.552073E-1,-3.069829E-1,3.7535557E-1,-5.3333964E-2,-2.8995752E-1,-1.289639E0,-2.2630358E-1,-9.861988E-1,2.2300689E-2,-3.0827966E-1,1.465914E0,-8.434574E-2,1.0301344E0,-5.742737E-1,-1.2954574E0,-1.3221047E0,8.1792004E-2,-7.645993E-1,-1.746284E0,-5.652274E-1,7.9478407E-1,-8.637734E-1,-9.6991557E-1,6.3241684E-1,1.6735649E0,-3.3460602E-1,-1.6306801E-1,7.30995E-1,-4.592022E-1,-1.629735E-2,-3.698595E-2,-3.1575179E-3,-3.9749388E-2,-1.9702042E-2,-6.08451E-3,-1.6860032E-2,-2.9021421E-2,-8.895243E-3,-2.1433767E-2,4.259272E-3,-1.2201505E-2,6.6109523E-3,-5.953477E-3,-1.3919922E-2,5.0233244E-3,9.276808E-3,-3.3571033E-3,2.6018653E-2,9.592771E-3,-5.1042703E-3,-1.3903906E-2,5.808992E-3,1.7811697E-2,-1.5261953E-3,1.4094404E-2,-2.509301E-2,-7.6747634E-3,1.4132574E-2,3.1635603E-3,1.2546734E-2,2.1908168E-2],"split_indices":[9,9,7,10,10,8,9,6,5,9,5,9,9,8,7,8,7,9,6,7,6,8,7,8,8,8,9,10,10,8,10,0,0,0,0,0,0,0,0,0,0,0,0,0,0,0,0,0,0,0,0,0,0,0,0,0,0,0,0,0,0,0,0],"split_type":[0,0,0,0,0,0,0,0,0,0,0,0,0,0,0,0,0,0,0,0,0,0,0,0,0,0,0,0,0,0,0,0,0,0,0,0,0,0,0,0,0,0,0,0,0,0,0,0,0,0,0,0,0,0,0,0,0,0,0,0,0,0,0],"sum_hessian":[1.2045271E5,2.335668E4,9.709603E4,8.126544E3,1.5230136E4,6.319204E4,3.3903996E4,1.9971426E3,6.1294014E3,8.791336E3,6.4388E3,2.6098254E4,3.7093785E4,7.1798403E3,2.6724156E4,8.358439E2,1.1612987E3,3.2709688E3,2.8584329E3,3.4191611E3,5.372175E3,3.1116648E3,3.3271348E3,1.4081211E4,1.2017043E4,3.1665564E4,5.4282188E3,6.263122E3,9.1671814E2,1.1177454E4,1.5546702E4,6.6239325E2,1.734506E2,3.682114E1,1.1244775E3,2.0037448E3,1.2672239E3,7.3272754E2,2.1257053E3,6.519931E2,2.7671682E3,3.8793893E2,4.984236E3,1.8464746E3,1.2651903E3,3.0416304E3,2.855043E2,4.7903076E3,9.290903E3,1.9519674E3,1.0065075E4,1.6377122E4,1.5288443E4,2.250815E3,3.1774038E3,3.7029634E3,2.560159E3,4.4233682E2,4.7438132E2,7.184715E3,3.992739E3,7.4242603E3,8.122442E3],"tree_param":{"num_deleted":"0","num_feature":"12","num_nodes":"63","size_leaf_vector":"1"}},{"base_weights":[2.3463003E-3,1.574399E-1,-3.485206E-1,1.2062564E-1,1.5079309E0,-4.724406E-1,3.1669015E-1,7.4032116E-1,3.861935E-2,-4.897791E-2,1.5229712E0,-9.2822474E-1,-2.5161377E-1,1.4331189E-1,6.3859594E-1,1.8361652E-1,1.3104161E0,-7.10817E-1,1.5460545E-1,-4.615059E-2,1.5274209E0,-6.0435015E-1,-1.1226029E0,1.3991669E-1,-8.313098E-1,-4.2182937E-1,3.790604E-1,7.6460403E-1,2.8655672E-1,4.6430897E-2,-1.720388E-2,4.3116048E-2,-1.8377274E-2,-2.528174E-2,1.290874E-2,3.8094286E-2,-2.8931088E-4,4.620405E-2,2.0214496E-2,-1.3846083E-2,-3.386059E-2,-3.1234108E-2,-3.796508E-2,4.537929E-2,6.0805527E-4,-1.7074626E-2,-3.1342357E-2,2.659952E-2,-1.3946698E-2,7.520131E-3,1.8134506E-2,1.6851475E-2,2.9011508E-2,-1.0798676E-2,1.8436259E-2],"categories":[],"categories_nodes":[],"categories_segments":[],"categories_sizes":[],"default_left":[0,0,0,0,0,0,0,0,0,0,0,0,0,0,0,0,0,0,0,0,0,0,0,0,0,0,0,0,0,0,0,0,0,0,0,0,0,0,0,0,0,0,0,0,0,0,0,0,0,0,0,0,0,0,0],"id":17,"left_children":[1,3,5,7,9,11,13,15,17,-1,19,21,23,25,27,29,31,33,35,-1,37,39,41,43,45,47,49,51,53,-1,-1,-1,-1,-1,-1,-1,-1,-1,-1,-1,-1,-1,-1,-1,-1,-1,-1,-1,-1,-1,-1,-1,-1,-1,-1],"loss_changes":[6.561728E3,4.157157E3,3.0470605E3,4.136714E3,1.0729443E2,3.1358384E3,3.2388965E2,3.0189956E3,6.2490435E3,0E0,3.2438477E1,6.3949316E2,4.7643105E3,5.0299448E2,8.990985E1,4.972664E3,1.146751E3,1.4506289E3,1.140343E4,0E0,2.2905273E1,2.8524158E2,7.2648926E1,2.057864E3,4.7288623E2,6.3034225E1,7.69418E1,6.0887756E1,1.1412248E2,0E0,0E0,0E0,0E0,0E0,0E0,0E0,0E0,0E0,0E0,0E0,0E0,0E0,0E0,0E0,0E0,0E0,0E0,0E0,0E0,0E0,0E0,0E0,0E0,0E0,0E0],"parents":[2147483647,0,0,1,1,2,2,3,3,4,4,5,5,6,6,7,7,8,8,10,10,11,11,12,12,13,13,14,14,15,15,16,16,17,17,18,18,20,20,21,21,22,22,23,23,24,24,25,25,26,26,27,27,28,28],"right_children":[2,4,6,8,10,12,14,16,18,-1,20,22,24,26,28,30,32,34,36,-1,38,40,42,44,46,48,50,52,54,-1,-1,-1,-1,-1,-1,-1,-1,-1,-1,-1,-1,-1,-1,-1,-1,-1,-1,-1,-1,-1,-1,-1,-1,-1,-1],"split_conditions":[5.7239544E-1,5.395997E-1,-1.1284353E-1,-1.8821476E0,6.023315E-1,8.0886847E-1,5.528608E-1,-1.9472389E0,-1.1790663E0,-4.897791E-2,-1.7033453E0,-8.537192E-1,1.0178914E0,4.7320104E-1,6.0296637E-1,-2.4622483E0,2.4111843E0,1.8934306E0,-5.1276135E-1,-4.615059E-2,1.1086323E0,6.5177673E-1,1.985534E-1,8.492895E-1,-6.9795156E-1,-2.697924E0,1.0175838E0,9.376257E-1,8.024543E-1,4.6430897E-2,-1.720388E-2,4.3116048E-2,-1.8377274E-2,-2.528174E-2,1.290874E-2,3.8094286E-2,-2.8931088E-4,4.620405E-2,2.0214496E-2,-1.3846083E-2,-3.386059E-2,-3.1234108E-2,-3.796508E-2,4.537929E-2,6.0805527E-4,-1.7074626E-2,-3.1342357E-2,2.659952E-2,-1.3946698E-2,7.520131E-3,1.8134506E-2,1.6851475E-2,2.9011508E-2,-1.0798676E-2,1.8436259E-2],"split_indices":[2,2,9,2,1,2,9,1,2,0,0,7,2,1,7,2,9,9,2,0,9,2,5,2,7,7,1,9,2,0,0,0,0,0,0,0,0,0,0,0,0,0,0,0,0,0,0,0,0,0,0,0,0,0,0],"split_type":[0,0,0,0,0,0,0,0,0,0,0,0,0,0,0,0,0,0,0,0,0,0,0,0,0,0,0,0,0,0,0,0,0,0,0,0,0,0,0,0,0,0,0,0,0,0,0,0,0,0,0,0,0,0,0],"sum_hessian":[1.2057981E5,8.36185E4,3.6961312E4,8.140062E4,2.2178848E3,3.1157393E4,5.803921E3,9.512166E3,7.188845E4,1.0058482E1,2.2078264E3,1.0167853E4,2.098954E4,3.77315E3,2.0307711E3,4.8132705E3,4.6988955E3,9.633984E3,6.225447E4,2.7041333E0,2.2051223E3,3.815142E3,6.352711E3,1.252848E4,8.461059E3,1.1104255E3,2.6627244E3,1.4946189E3,5.3615216E2,1.7175685E3,3.0957021E3,4.40849E3,2.9040543E2,8.635963E3,9.9802203E2,7.9910205E3,5.4263445E4,2.1719673E3,3.315503E1,2.9999285E3,8.1521356E2,4.0513533E3,2.3013574E3,1.00351276E3,1.1524968E4,3.7987947E3,4.6622637E3,3.4754383E1,1.0756711E3,1.6978365E3,9.648879E2,7.483801E2,7.462388E2,1.804191E2,3.557331E2],"tree_param":{"num_deleted":"0","num_feature":"12","num_nodes":"55","size_leaf_vector":"1"}},{"base_weights":[-1.3551605E-3,1.4991291E-1,-3.431506E-1,-4.5561727E-2,4.069804E-1,-7.1714693E-1,-1.4971666E-1,3.7488937E-1,-5.9893334E-1,1.6278082E0,-2.7795085E-3,-8.640255E-1,1.5105249E-1,1.7672396E-1,-6.686665E-1,1.6747288E-2,1.392174E0,-6.796966E-1,5.2059865E-1,1.6767786E0,-7.17218E-1,-1.3204154E-1,1.4835103E0,-6.5011525E-1,-1.039507E0,1.2028832E0,-9.6645826E-1,1.4324551E0,5.8859855E-2,-7.896977E-1,4.235339E-1,2.2003157E-2,-1.9046064E-2,4.3801714E-2,-5.702544E-2,-1.5911251E-2,-3.4877274E-2,4.66325E-2,-3.2184437E-2,5.4933578E-2,4.1616198E-2,5.277005E-2,-4.793379E-2,3.0285057E-3,-1.9752495E-2,-4.768479E-2,4.495686E-2,-2.1836428E-2,3.270145E-2,-3.2318797E-2,-1.9860495E-2,4.8194416E-2,1.29606575E-2,-1.0531596E-3,-3.4308255E-2,4.3650847E-2,-7.040882E-3,1.1324537E-2,-8.909804E-3,-2.189165E-2,-3.7797675E-2,4.537327E-2,-2.6777433E-2],"categories":[],"categories_nodes":[],"categories_segments":[],"categories_sizes":[],"default_left":[0,0,0,0,0,0,0,0,0,0,0,0,0,0,0,0,0,0,0,0,0,0,0,0,0,0,0,0,0,0,0,0,0,0,0,0,0,0,0,0,0,0,0,0,0,0,0,0,0,0,0,0,0,0,0,0,0,0,0,0,0,0,0],"id":18,"left_children":[1,3,5,7,9,11,13,15,17,19,21,23,25,27,29,31,33,35,37,39,41,43,45,47,49,51,53,55,57,59,61,-1,-1,-1,-1,-1,-1,-1,-1,-1,-1,-1,-1,-1,-1,-1,-1,-1,-1,-1,-1,-1,-1,-1,-1,-1,-1,-1,-1,-1,-1,-1,-1],"loss_changes":[6.2067773E3,4.181726E3,2.6642783E3,1.0999012E4,1.798178E4,1.6011104E3,4.112601E3,9.787148E3,1.8458237E3,1.0385273E3,5.1708984E3,4.0240918E2,2.1374907E3,2.205602E3,1.2395044E3,9.279663E3,1.5664023E3,1.372083E3,2.2649238E3,3.9292578E2,4.0723975E2,3.0368198E3,1.0198926E2,6.560272E2,8.340674E1,2.9072986E2,1.454447E2,4.8463623E1,1.5449653E3,2.3708789E2,1.3424843E3,0E0,0E0,0E0,0E0,0E0,0E0,0E0,0E0,0E0,0E0,0E0,0E0,0E0,0E0,0E0,0E0,0E0,0E0,0E0,0E0,0E0,0E0,0E0,0E0,0E0,0E0,0E0,0E0,0E0,0E0,0E0,0E0],"parents":[2147483647,0,0,1,1,2,2,3,3,4,4,5,5,6,6,7,7,8,8,9,9,10,10,11,11,12,12,13,13,14,14,15,15,16,16,17,17,18,18,19,19,20,20,21,21,22,22,23,23,24,24,25,25,26,26,27,27,28,28,29,29,30,30],"right_children":[2,4,6,8,10,12,14,16,18,20,22,24,26,28,30,32,34,36,38,40,42,44,46,48,50,52,54,56,58,60,62,-1,-1,-1,-1,-1,-1,-1,-1,-1,-1,-1,-1,-1,-1,-1,-1,-1,-1,-1,-1,-1,-1,-1,-1,-1,-1,-1,-1,-1,-1,-1,-1],"split_conditions":[5.7239544E-1,7.710793E-3,8.0886847E-1,-5.1276135E-1,2.871173E-1,8.5646294E-2,1.0178914E0,-7.9012257E-1,1.6735649E0,1.613882E0,5.395997E-1,-9.848826E-1,-2.4237841E-1,8.492895E-1,-1.7086363E-1,-1.8821476E0,-2.1672149E-1,-3.1736553E-1,1.4366934E0,1.085363E-2,1.085363E-2,3.6060642E-2,6.023315E-1,-3.7851453E-1,-1.1284353E-1,-5.714427E-1,-9.894011E-2,8.966904E-1,-5.714427E-1,-6.4738065E-1,-5.798803E-1,2.2003157E-2,-1.9046064E-2,4.3801714E-2,-5.702544E-2,-1.5911251E-2,-3.4877274E-2,4.66325E-2,-3.2184437E-2,5.4933578E-2,4.1616198E-2,5.277005E-2,-4.793379E-2,3.0285057E-3,-1.9752495E-2,-4.768479E-2,4.495686E-2,-2.1836428E-2,3.270145E-2,-3.2318797E-2,-1.9860495E-2,4.8194416E-2,1.29606575E-2,-1.0531596E-3,-3.4308255E-2,4.3650847E-2,-7.040882E-3,1.1324537E-2,-8.909804E-3,-2.189165E-2,-3.7797675E-2,4.537327E-2,-2.6777433E-2],"split_indices":[2,2,2,2,2,9,2,2,9,3,2,3,3,2,9,2,1,2,3,2,2,3,1,9,9,3,3,3,3,3,3,0,0,0,0,0,0,0,0,0,0,0,0,0,0,0,0,0,0,0,0,0,0,0,0,0,0,0,0,0,0,0,0],"split_type":[0,0,0,0,0,0,0,0,0,0,0,0,0,0,0,0,0,0,0,0,0,0,0,0,0,0,0,0,0,0,0,0,0,0,0,0,0,0,0,0,0,0,0,0,0,0,0,0,0,0,0,0,0,0,0,0,0,0,0,0,0,0,0],"sum_hessian":[1.20045375E5,8.3216766E4,3.6828605E4,4.727192E4,3.5944844E4,1.2553749E4,2.4274857E4,2.68623E4,2.0409623E4,9.032043E3,2.6912803E4,1.0737266E4,1.8164832E3,1.4901724E4,9.373133E3,1.986848E4,6.99382E3,1.9036703E4,1.3729194E3,8.847567E3,1.8447568E2,2.4760318E4,2.152484E3,4.8409277E3,5.896338E3,9.3570056E2,8.8078265E2,1.2777153E3,1.3624009E4,8.438324E3,9.348086E2,9.461719E3,1.0406762E4,6.853105E3,1.4071489E2,1.4541965E4,4.494738E3,8.3268915E2,5.402303E2,5.7679487E3,3.0796187E3,4.8131115E1,1.3634457E2,1.7163824E4,7.5964937E3,9.981771E0,2.1425022E3,4.6344043E3,2.0652383E2,5.3581426E3,5.381953E2,6.1343994E2,3.2226065E2,1.4094963E2,7.39833E2,1.2607716E3,1.694366E1,7.1879688E3,6.43604E3,7.486049E3,9.5227576E2,5.1147913E2,4.233295E2],"tree_param":{"num_deleted":"0","num_feature":"12","num_nodes":"63","size_leaf_vector":"1"}},{"base_weights":[7.3319883E-4,1.4994952E-1,-3.394211E-1,-3.6687512E-2,3.96058E-1,-4.5812917E-1,2.978636E-1,3.6377352E-1,-5.5693567E-1,1.5895666E0,-9.320322E-3,-8.868783E-1,-2.5093523E-1,5.4699075E-1,-2.628687E-1,7.7703465E-3,1.365809E0,-4.0367842E-1,-1.0642558E0,1.7854483E0,1.2360382E0,-1.3024811E-1,1.4567691E0,-4.4469252E-1,-1.0153657E0,1.08538E-1,-7.799984E-1,8.691722E-1,4.3945712E-1,-5.075775E-1,3.7893513E-1,2.1169836E-2,-1.8980866E-2,4.2944126E-2,-5.455609E-2,-1.4388885E-2,2.2890223E-2,-3.6831193E-2,-1.0564604E-2,5.4889433E-2,5.3002086E-2,-4.582254E-2,5.4091647E-2,1.832662E-2,-8.605012E-3,-4.7223564E-2,4.419292E-2,-7.2917175E-3,-2.9707314E-2,-2.569587E-2,-3.320096E-2,4.378813E-2,-1.6619342E-4,-1.3306677E-2,-2.8539715E-2,-4.5075703E-2,2.6728213E-2,2.864511E-3,1.769213E-2,-2.1498349E-2,-7.910286E-4,1.6047772E-2,-2.9695913E-2],"categories":[],"categories_nodes":[],"categories_segments":[],"categories_sizes":[],"default_left":[0,0,0,0,0,0,0,0,0,0,0,0,0,0,0,0,0,0,0,0,0,0,0,0,0,0,0,0,0,0,0,0,0,0,0,0,0,0,0,0,0,0,0,0,0,0,0,0,0,0,0,0,0,0,0,0,0,0,0,0,0,0,0],"id":19,"left_children":[1,3,5,7,9,11,13,15,17,19,21,23,25,27,29,31,33,35,37,39,41,43,45,47,49,51,53,55,57,59,61,-1,-1,-1,-1,-1,-1,-1,-1,-1,-1,-1,-1,-1,-1,-1,-1,-1,-1,-1,-1,-1,-1,-1,-1,-1,-1,-1,-1,-1,-1,-1,-1],"loss_changes":[6.0740864E3,3.8207866E3,2.7605938E3,9.856187E3,1.7357191E4,2.7323325E3,8.006273E2,9.535941E3,1.5994165E3,6.276699E2,4.748112E3,5.689199E2,3.9444485E3,1.3708606E2,2.771449E2,8.817099E3,1.4678193E3,1.4008108E3,5.5514746E2,1.6074219E0,5.0892275E3,2.8713613E3,1.0331152E2,2.481572E2,1.1168994E2,1.9034684E3,4.8322998E2,5.2548767E1,1.5383002E2,1.2844116E2,1.0458543E2,0E0,0E0,0E0,0E0,0E0,0E0,0E0,0E0,0E0,0E0,0E0,0E0,0E0,0E0,0E0,0E0,0E0,0E0,0E0,0E0,0E0,0E0,0E0,0E0,0E0,0E0,0E0,0E0,0E0,0E0,0E0,0E0],"parents":[2147483647,0,0,1,1,2,2,3,3,4,4,5,5,6,6,7,7,8,8,9,9,10,10,11,11,12,12,13,13,14,14,15,15,16,16,17,17,18,18,19,19,20,20,21,21,22,22,23,23,24,24,25,25,26,26,27,27,28,28,29,29,30,30],"right_children":[2,4,6,8,10,12,14,16,18,20,22,24,26,28,30,32,34,36,38,40,42,44,46,48,50,52,54,56,58,60,62,-1,-1,-1,-1,-1,-1,-1,-1,-1,-1,-1,-1,-1,-1,-1,-1,-1,-1,-1,-1,-1,-1,-1,-1,-1,-1,-1,-1,-1,-1,-1,-1],"split_conditions":[5.7239544E-1,7.710793E-3,-1.1284353E-1,-5.1276135E-1,2.871173E-1,8.0886847E-1,-2.3510885E-1,-7.9012257E-1,-3.1736553E-1,1.085363E-2,5.395997E-1,-1.2667761E0,1.0178914E0,-1.0857258E0,7.08599E-1,-1.8821476E0,-2.1672149E-1,1.7651756E0,8.246392E-1,5.4299146E-1,2.7697954E-1,-6.356673E-1,6.023315E-1,6.5177673E-1,-4.86984E-1,8.492895E-1,-9.3707156E-1,6.160587E-1,8.5646294E-2,6.329022E-1,9.121689E-1,2.1169836E-2,-1.8980866E-2,4.2944126E-2,-5.455609E-2,-1.4388885E-2,2.2890223E-2,-3.6831193E-2,-1.0564604E-2,5.4889433E-2,5.3002086E-2,-4.582254E-2,5.4091647E-2,1.832662E-2,-8.605012E-3,-4.7223564E-2,4.419292E-2,-7.2917175E-3,-2.9707314E-2,-2.569587E-2,-3.320096E-2,4.378813E-2,-1.6619342E-4,-1.3306677E-2,-2.8539715E-2,-4.5075703E-2,2.6728213E-2,2.864511E-3,1.769213E-2,-2.1498349E-2,-7.910286E-4,1.6047772E-2,-2.9695913E-2],"split_indices":[2,2,9,2,2,2,8,2,2,2,2,7,2,8,9,2,1,9,9,7,2,7,1,2,5,2,7,2,9,1,7,0,0,0,0,0,0,0,0,0,0,0,0,0,0,0,0,0,0,0,0,0,0,0,0,0,0,0,0,0,0,0,0],"split_type":[0,0,0,0,0,0,0,0,0,0,0,0,0,0,0,0,0,0,0,0,0,0,0,0,0,0,0,0,0,0,0,0,0,0,0,0,0,0,0,0,0,0,0,0,0,0,0,0,0,0,0,0,0,0,0,0,0,0,0,0,0,0,0],"sum_hessian":[1.19668945E5,8.318051E4,3.648844E4,4.7306414E4,3.5874098E4,3.075916E4,5.729279E3,2.6730732E4,2.057568E4,9.0947E3,2.6779396E4,1.0020444E4,2.0738717E4,3.966868E3,1.762411E3,1.9724145E4,7.006587E3,1.5803398E4,4.772282E3,5.8495513E3,3.2451484E3,2.4739697E4,2.0396989E3,2.2571133E3,7.7633306E3,1.2348974E4,8.389743E3,9.909126E2,2.9759553E3,1.2760747E3,4.8633624E2,9.438872E3,1.0285273E4,6.865568E3,1.4101892E2,1.4838033E4,9.653652E2,3.88079E3,8.9149194E2,1.7110717E3,4.1384795E3,5.522018E2,2.6929468E3,4.314733E3,2.0424965E4,1.04183655E1,2.0292805E3,1.6490657E3,6.0804767E2,2.8380596E3,4.925271E3,9.6058673E2,1.1388387E4,2.8319849E3,5.557759E3,8.393539E0,9.8251904E2,9.053521E2,2.0706033E3,8.89286E2,3.867887E2,4.3712946E2,4.9206802E1],"tree_param":{"num_deleted":"0","num_feature":"12","num_nodes":"63","size_leaf_vector":"1"}},{"base_weights":[-1.3484366E-3,1.4267656E-1,-3.2926133E-1,-4.4781722E-2,3.8793707E-1,-4.4356117E-1,2.8856048E-1,3.4859237E-1,-5.533089E-1,1.5508734E0,-3.510796E-3,-8.635054E-1,-2.4231447E-1,1.5125697E0,-2.8182855E-1,4.182879E-3,1.3395982E0,-6.289648E-1,4.8568586E-1,1.6034347E0,-3.6828914E-1,-1.2829143E-1,1.433513E0,-4.290901E-1,-9.914689E-1,1.12449594E-1,-7.694578E-1,1.5482711E0,-5.4695196E-2,1.1995944E-1,-1.0841166E0,2.0781986E-2,-1.8683594E-2,4.2206578E-2,-5.457176E-2,-1.45773925E-2,-3.279316E-2,4.3373667E-2,-3.1795565E-2,5.2383237E-2,4.0222667E-2,5.1204335E-2,-4.4218376E-2,4.704783E-3,-1.5667213E-2,-4.643985E-2,4.3459885E-2,-6.812996E-3,-2.898717E-2,-2.5020935E-2,-3.309193E-2,4.331287E-2,1.9620788E-4,-7.1670404E-3,-2.5875265E-2,3.010141E-2,4.839691E-2,-5.3894848E-2,4.57977E-2,-6.307629E-3,4.2108122E-2,-2.585854E-2,-4.354646E-2],"categories":[],"categories_nodes":[],"categories_segments":[],"categories_sizes":[],"default_left":[0,0,0,0,0,0,0,0,0,0,0,0,0,0,0,0,0,0,0,0,0,0,0,0,0,0,0,0,0,0,0,0,0,0,0,0,0,0,0,0,0,0,0,0,0,0,0,0,0,0,0,0,0,0,0,0,0,0,0,0,0,0,0],"id":20,"left_children":[1,3,5,7,9,11,13,15,17,19,21,23,25,27,29,31,33,35,37,39,41,43,45,47,49,51,53,55,57,59,61,-1,-1,-1,-1,-1,-1,-1,-1,-1,-1,-1,-1,-1,-1,-1,-1,-1,-1,-1,-1,-1,-1,-1,-1,-1,-1,-1,-1,-1,-1,-1,-1],"loss_changes":[5.642617E3,3.816736E3,2.574943E3,9.412759E3,1.6371483E4,2.600209E3,3.9751016E3,9.055332E3,1.6135454E3,9.1418164E2,4.825023E3,5.536909E2,3.8904185E3,1.01350586E2,1.2522131E3,8.500394E3,1.4568457E3,1.2696616E3,2.069388E3,3.2804102E2,5.58309E2,2.7810056E3,9.9350586E1,2.4606052E2,1.3434912E2,1.7533414E3,4.1293115E2,6.1016113E1,1.16423515E2,1.0977166E3,1.04561035E2,0E0,0E0,0E0,0E0,0E0,0E0,0E0,0E0,0E0,0E0,0E0,0E0,0E0,0E0,0E0,0E0,0E0,0E0,0E0,0E0,0E0,0E0,0E0,0E0,0E0,0E0,0E0,0E0,0E0,0E0,0E0,0E0],"parents":[2147483647,0,0,1,1,2,2,3,3,4,4,5,5,6,6,7,7,8,8,9,9,10,10,11,11,12,12,13,13,14,14,15,15,16,16,17,17,18,18,19,19,20,20,21,21,22,22,23,23,24,24,25,25,26,26,27,27,28,28,29,29,30,30],"right_children":[2,4,6,8,10,12,14,16,18,20,22,24,26,28,30,32,34,36,38,40,42,44,46,48,50,52,54,56,58,60,62,-1,-1,-1,-1,-1,-1,-1,-1,-1,-1,-1,-1,-1,-1,-1,-1,-1,-1,-1,-1,-1,-1,-1,-1,-1,-1,-1,-1,-1,-1,-1,-1],"split_conditions":[5.7239544E-1,7.710793E-3,-1.1284353E-1,-5.1276135E-1,2.871173E-1,8.0886847E-1,-5.714427E-1,-7.9012257E-1,1.6735649E0,1.4620061E0,5.395997E-1,-1.2667761E0,1.0178914E0,3.234012E-1,2.4699932E-1,-1.8821476E0,-2.1672149E-1,-3.1736553E-1,1.4873188E0,1.085363E-2,1.085363E-2,-1.495654E-1,6.023315E-1,6.5177673E-1,-9.848826E-1,8.492895E-1,-1.5418886E0,-3.650129E-2,2.7802876E-1,6.5057886E-1,8.966904E-1,2.0781986E-2,-1.8683594E-2,4.2206578E-2,-5.457176E-2,-1.45773925E-2,-3.279316E-2,4.3373667E-2,-3.1795565E-2,5.2383237E-2,4.0222667E-2,5.1204335E-2,-4.4218376E-2,4.704783E-3,-1.5667213E-2,-4.643985E-2,4.3459885E-2,-6.812996E-3,-2.898717E-2,-2.5020935E-2,-3.309193E-2,4.331287E-2,1.9620788E-4,-7.1670404E-3,-2.5875265E-2,3.010141E-2,4.839691E-2,-5.3894848E-2,4.57977E-2,-6.307629E-3,4.2108122E-2,-2.585854E-2,-4.354646E-2],"split_indices":[2,2,9,2,2,2,3,2,9,3,2,7,2,8,3,2,1,2,3,2,2,3,1,2,3,2,7,9,9,9,3,0,0,0,0,0,0,0,0,0,0,0,0,0,0,0,0,0,0,0,0,0,0,0,0,0,0,0,0,0,0,0,0],"split_type":[0,0,0,0,0,0,0,0,0,0,0,0,0,0,0,0,0,0,0,0,0,0,0,0,0,0,0,0,0,0,0,0,0,0,0,0,0,0,0,0,0,0,0,0,0,0,0,0,0,0,0,0,0,0,0,0,0,0,0,0,0,0,0],"sum_hessian":[1.1947498E5,8.301425E4,3.6460727E4,4.705208E4,3.596217E4,3.0768664E4,5.692061E3,2.6529979E4,2.05221E4,9.055777E3,2.6906396E4,9.967033E3,2.0801633E4,1.8088218E3,3.883239E3,1.9688525E4,6.841453E3,1.9129549E4,1.3925503E3,8.814532E3,2.4124449E2,2.4757543E4,2.1488533E3,2.268886E3,7.6981465E3,1.2434249E4,8.367383E3,1.7685476E3,4.0274277E1,2.588008E3,1.295231E3,9.383395E3,1.0305131E4,6.699295E3,1.421581E2,1.4624281E4,4.505269E3,8.5899744E2,5.3355286E2,5.708393E3,3.1061394E3,8.3669525E1,1.5757497E2,1.43630205E4,1.0394522E4,1.0352203E1,2.138501E3,1.649884E3,6.19002E2,3.1967192E3,4.5014272E3,9.153528E2,1.1518896E4,1.249064E3,7.118319E3,1.901322E2,1.5784153E3,1.9099693E1,2.1174582E1,2.0591375E3,5.2887067E2,8.0926227E2,4.8596863E2],"tree_param":{"num_deleted":"0","num_feature":"12","num_nodes":"63","size_leaf_vector":"1"}},{"base_weights":[-1.6001781E-3,1.3917722E-1,-3.231659E-1,-4.50822E-2,3.7937024E-1,-6.8259376E-1,-1.3901481E-1,3.4317607E-1,-5.459894E-1,1.5185245E0,-4.926162E-3,-8.2689375E-1,1.9877514E-1,1.7247069E-1,-6.4205384E-1,6.0087657E-3,1.3158274E0,-6.1872095E-1,4.6516702E-1,1.5715268E0,-3.048535E-1,-1.2313017E-1,1.415787E0,-2.8919396E-1,-9.263583E-1,1.0506572E0,-1.0746083E0,1.3706132E0,6.3382104E-2,-7.415044E-1,6.0228556E-1,2.0035937E-2,-1.7674213E-2,4.148099E-2,-5.8456518E-2,-1.4336656E-2,-3.2208193E-2,4.2271405E-2,-3.2599237E-2,5.1221784E-2,3.9441567E-2,5.0032504E-2,-4.1739065E-2,5.1255003E-3,-1.5821306E-2,-4.5244053E-2,4.2951923E-2,-1.3825042E-3,-2.6653016E-2,-2.2425288E-2,-3.1439528E-2,4.623353E-2,1.15108555E-2,-3.633142E-2,-9.598914E-4,4.1845597E-2,-1.7270476E-2,1.5451538E-2,-6.9681997E-3,-4.345839E-3,-2.5006654E-2,4.2263392E-2,-4.2143557E-2],"categories":[],"categories_nodes":[],"categories_segments":[],"categories_sizes":[],"default_left":[0,0,0,0,0,0,0,0,0,0,0,0,0,0,0,0,0,0,0,0,0,0,0,0,0,0,0,0,0,0,0,0,0,0,0,0,0,0,0,0,0,0,0,0,0,0,0,0,0,0,0,0,0,0,0,0,0,0,0,0,0,0,0],"id":21,"left_children":[1,3,5,7,9,11,13,15,17,19,21,23,25,27,29,31,33,35,37,39,41,43,45,47,49,51,53,55,57,59,61,-1,-1,-1,-1,-1,-1,-1,-1,-1,-1,-1,-1,-1,-1,-1,-1,-1,-1,-1,-1,-1,-1,-1,-1,-1,-1,-1,-1,-1,-1,-1,-1],"loss_changes":[5.385258E3,3.6618564E3,2.3974038E3,9.106171E3,1.57239E4,1.560791E3,3.7531553E3,8.650395E3,1.5039023E3,8.761074E2,4.5106265E3,5.636841E2,1.874723E3,1.9334513E3,1.1339788E3,7.716378E3,1.484919E3,1.2214092E3,2.0118694E3,3.0496484E2,5.526083E2,2.946908E3,9.8336914E1,2.3997398E2,1.9277441E2,3.3809705E2,9.85152E1,5.9041992E1,1.8108798E3,4.6574512E2,1.1001774E3,0E0,0E0,0E0,0E0,0E0,0E0,0E0,0E0,0E0,0E0,0E0,0E0,0E0,0E0,0E0,0E0,0E0,0E0,0E0,0E0,0E0,0E0,0E0,0E0,0E0,0E0,0E0,0E0,0E0,0E0,0E0,0E0],"parents":[2147483647,0,0,1,1,2,2,3,3,4,4,5,5,6,6,7,7,8,8,9,9,10,10,11,11,12,12,13,13,14,14,15,15,16,16,17,17,18,18,19,19,20,20,21,21,22,22,23,23,24,24,25,25,26,26,27,27,28,28,29,29,30,30],"right_children":[2,4,6,8,10,12,14,16,18,20,22,24,26,28,30,32,34,36,38,40,42,44,46,48,50,52,54,56,58,60,62,-1,-1,-1,-1,-1,-1,-1,-1,-1,-1,-1,-1,-1,-1,-1,-1,-1,-1,-1,-1,-1,-1,-1,-1,-1,-1,-1,-1,-1,-1,-1,-1],"split_conditions":[5.7239544E-1,7.710793E-3,8.0886847E-1,-5.1276135E-1,2.871173E-1,1.1618319E-1,1.0178914E0,-7.9012257E-1,1.6735649E0,1.4620061E0,5.395997E-1,-1.5418886E0,-9.894011E-2,8.492895E-1,8.5646294E-2,-1.8821476E0,-2.1672149E-1,-3.1736553E-1,1.4873188E0,1.085363E-2,1.085363E-2,-1.5800294E-1,6.023315E-1,6.5177673E-1,-9.933201E-1,-5.714427E-1,1.7163166E0,8.966904E-1,-9.5144644E-2,-1.6287065E0,-3.098788E-1,2.0035937E-2,-1.7674213E-2,4.148099E-2,-5.8456518E-2,-1.4336656E-2,-3.2208193E-2,4.2271405E-2,-3.2599237E-2,5.1221784E-2,3.9441567E-2,5.0032504E-2,-4.1739065E-2,5.1255003E-3,-1.5821306E-2,-4.5244053E-2,4.2951923E-2,-1.3825042E-3,-2.6653016E-2,-2.2425288E-2,-3.1439528E-2,4.623353E-2,1.15108555E-2,-3.633142E-2,-9.598914E-4,4.1845597E-2,-1.7270476E-2,1.5451538E-2,-6.9681997E-3,-4.345839E-3,-2.5006654E-2,4.2263392E-2,-4.2143557E-2],"split_indices":[2,2,2,2,2,9,2,2,9,3,2,7,3,2,9,2,1,2,3,2,2,3,1,2,3,3,9,3,7,7,3,0,0,0,0,0,0,0,0,0,0,0,0,0,0,0,0,0,0,0,0,0,0,0,0,0,0,0,0,0,0,0,0],"split_type":[0,0,0,0,0,0,0,0,0,0,0,0,0,0,0,0,0,0,0,0,0,0,0,0,0,0,0,0,0,0,0,0,0,0,0,0,0,0,0,0,0,0,0,0,0,0,0,0,0,0,0,0,0,0,0,0,0,0,0,0,0,0,0],"sum_hessian":[1.18958805E5,8.2737805E4,3.6220996E4,4.6820887E4,3.591692E4,1.2269858E4,2.3951137E4,2.6376506E4,2.0444383E4,9.059439E3,2.685748E4,1.0543682E4,1.726177E3,1.4792295E4,9.158842E3,1.9587537E4,6.7889673E3,1.9072875E4,1.3715062E3,8.803671E3,2.5576804E2,2.4795404E4,2.0620762E3,1.646532E3,8.897149E3,1.0343687E3,6.9180835E2,1.2334536E3,1.3558842E4,8.481394E3,6.774484E2,9.273977E3,1.0313562E4,6.653249E3,1.3571828E2,1.4565464E4,4.507412E3,8.5285394E2,5.186523E2,5.7538867E3,3.0497842E3,9.0648186E1,1.6511984E2,1.4355927E4,1.0439478E4,1.0675698E1,2.0514004E3,1.172093E3,4.7443893E2,3.6042744E3,5.2928755E3,5.952972E2,4.390714E2,6.116099E2,8.019847E1,1.2185605E3,1.4893118E1,5.3638345E3,8.195007E3,1.1339669E3,7.3474263E3,4.8347394E2,1.9397452E2],"tree_param":{"num_deleted":"0","num_feature":"12","num_nodes":"63","size_leaf_vector":"1"}},{"base_weights":[9.3748927E-4,-4.3978682E-1,9.9183194E-2,-1.739713E-2,-5.824955E-1,4.446598E-2,7.576989E-2,-4.292108E-1,4.254846E-1,-8.5939175E-1,-4.4410262E-1,-2.8239891E-2,3.130388E-1,-5.109582E-1,4.435249E-2,-5.922463E-1,6.9060326E-1,-5.4318845E-1,-1.0171313E0,-1.7556502E-2,-8.094278E-1,-2.3153017E-1,1.4042987E-1,5.3259486E-1,-9.231016E-2,9.415712E-3,-2.1108074E-2,1.608763E-2,-2.8209511E-2,4.2015117E-2,1.1434835E-2,-9.044337E-3,-3.306092E-2,-2.6182014E-2,-3.2756593E-2,-1.3034794E-2,1.5085778E-2,-1.0957301E-2,-2.832931E-2,-3.6716238E-3,-3.1114854E-2,4.412086E-2,-5.1337853E-4,6.5596495E-3,4.4612706E-2,-1.1575063E-2,5.6555113E-3],"categories":[],"categories_nodes":[],"categories_segments":[],"categories_sizes":[],"default_left":[0,0,0,0,0,0,0,0,0,0,0,0,0,0,0,0,0,0,0,0,0,0,0,0,0,0,0,0,0,0,0,0,0,0,0,0,0,0,0,0,0,0,0,0,0,0,0],"id":22,"left_children":[1,3,5,7,9,-1,11,13,15,17,19,21,23,25,-1,27,29,31,33,35,37,39,41,43,45,-1,-1,-1,-1,-1,-1,-1,-1,-1,-1,-1,-1,-1,-1,-1,-1,-1,-1,-1,-1,-1,-1],"loss_changes":[5.1373403E3,1.303668E3,3.141483E3,9.965134E2,6.190967E2,0E0,2.3544575E3,4.4225977E2,7.107397E2,2.6809277E2,1.6799136E3,2.2744265E3,2.5877546E3,4.317165E2,0E0,2.1442389E2,4.583656E2,2.4210046E2,3.7823975E1,1.0796119E3,3.4757056E2,2.6446526E3,7.5976123E3,5.6513755E3,8.422291E2,0E0,0E0,0E0,0E0,0E0,0E0,0E0,0E0,0E0,0E0,0E0,0E0,0E0,0E0,0E0,0E0,0E0,0E0,0E0,0E0,0E0,0E0],"parents":[2147483647,0,0,1,1,2,2,3,3,4,4,6,6,7,7,8,8,9,9,10,10,11,11,12,12,13,13,15,15,16,16,17,17,18,18,19,19,20,20,21,21,22,22,23,23,24,24],"right_children":[2,4,6,8,10,-1,12,14,16,18,20,22,24,26,-1,28,30,32,34,36,38,40,42,44,46,-1,-1,-1,-1,-1,-1,-1,-1,-1,-1,-1,-1,-1,-1,-1,-1,-1,-1,-1,-1,-1,-1],"split_conditions":[-8.1519216E-1,5.7239544E-1,-2.4622483E0,-1.3109481E-2,8.024543E-1,4.446598E-2,6.525543E-1,5.346795E-1,-1.9419482E-1,-9.3707156E-1,1.0178914E0,7.710793E-3,2.871173E-1,2.871173E-1,4.435249E-2,-3.1736553E-1,1.9559748E-1,6.5177673E-1,-4.5220613E-1,3.7752137E-2,-1.2389286E0,-3.1736553E-1,2.871173E-1,7.710793E-3,6.119744E-1,9.415712E-3,-2.1108074E-2,1.608763E-2,-2.8209511E-2,4.2015117E-2,1.1434835E-2,-9.044337E-3,-3.306092E-2,-2.6182014E-2,-3.2756593E-2,-1.3034794E-2,1.5085778E-2,-1.0957301E-2,-2.832931E-2,-3.6716238E-3,-3.1114854E-2,4.412086E-2,-5.1337853E-4,6.5596495E-3,4.4612706E-2,-1.1575063E-2,5.6555113E-3],"split_indices":[9,2,2,10,2,0,7,2,1,7,2,2,2,2,0,2,6,2,6,10,7,2,2,2,1,0,0,0,0,0,0,0,0,0,0,0,0,0,0,0,0,0,0,0,0,0,0],"split_type":[0,0,0,0,0,0,0,0,0,0,0,0,0,0,0,0,0,0,0,0,0,0,0,0,0,0,0,0,0,0,0,0,0,0,0,0,0,0,0,0,0,0,0,0,0,0,0],"sum_hessian":[1.18645266E5,2.162652E4,9.701874E4,5.461797E3,1.6164724E4,1.6140669E3,9.540467E4,2.8301821E3,2.6316147E3,5.3850723E3,1.0779651E4,6.632929E4,2.9075387E4,2.7145864E3,1.1559573E2,5.436047E2,2.08801E3,1.7937598E3,3.5913125E3,4.9736123E3,5.8060386E3,3.0077645E4,3.6251645E4,1.8859748E4,1.0215639E4,5.1385675E2,2.2007297E3,1.2801595E2,4.155887E2,6.327873E2,1.4552227E3,1.2532452E3,5.405145E2,1.2293567E3,2.3619558E3,2.7614292E3,2.2121833E3,1.3532684E3,4.45277E3,2.6490064E4,3.5875815E3,3.837767E3,3.2413877E4,1.4192854E4,4.666894E3,4.9947104E3,5.220928E3],"tree_param":{"num_deleted":"0","num_feature":"12","num_nodes":"47","size_leaf_vector":"1"}},{"base_weights":[-4.047344E-3,1.3151065E-1,-3.1502733E-1,9.899045E-2,1.3922843E0,-6.492364E-1,-1.4303264E-1,6.4413786E-1,2.7867934E-2,-4.4666365E-2,1.4075274E0,-1.9291738E-1,-7.310172E-1,1.5533477E-1,-6.2868166E-1,7.7295445E-2,1.2374263E0,-2.1204071E-1,2.9622298E-1,1.4222715E0,-1.9649898E-1,1.3737429E-2,-7.552195E-1,-6.955907E-1,-1.2168047E0,1.3539443E0,5.1998217E-2,-5.401128E-1,-1.1326478E0,4.3834228E-2,-1.9283606E-2,4.061842E-2,-3.4408946E-2,4.9368693E-3,-1.5739974E-2,4.3473385E-2,-3.3945097E-3,4.2772055E-2,-4.257914E-2,-5.6778423E-2,3.3550072E-2,7.812935E-3,-2.050982E-2,-3.963831E-3,-2.6620377E-2,-1.7126156E-2,-2.3152087E-2,-1.9882867E-2,-3.9187536E-2,4.1516226E-2,-2.1116642E-2,-8.213422E-3,1.306499E-2,-7.7868784E-3,-2.036284E-2,-3.108129E-2,-4.018956E-2],"categories":[],"categories_nodes":[],"categories_segments":[],"categories_sizes":[],"default_left":[0,0,0,0,0,0,0,0,0,0,0,0,0,0,0,0,0,0,0,0,0,0,0,0,0,0,0,0,0,0,0,0,0,0,0,0,0,0,0,0,0,0,0,0,0,0,0,0,0,0,0,0,0,0,0,0,0],"id":23,"left_children":[1,3,5,7,9,11,13,15,17,-1,19,21,23,25,27,29,31,33,35,37,39,41,43,45,47,49,51,53,55,-1,-1,-1,-1,-1,-1,-1,-1,-1,-1,-1,-1,-1,-1,-1,-1,-1,-1,-1,-1,-1,-1,-1,-1,-1,-1,-1,-1],"loss_changes":[4.980465E3,3.373331E3,2.0615444E3,3.1099314E3,9.295557E1,4.5461523E2,3.431481E3,3.1130144E3,4.5681807E3,0E0,4.896167E1,2.1537811E2,1.7699121E2,1.8169011E3,4.0165454E2,4.719317E3,1.2581533E3,4.410879E3,1.5807229E4,2.2100586E1,4.5887974E1,2.3351666E2,4.0890564E1,9.104639E1,3.3875244E1,7.268359E1,1.687545E3,2.980547E2,2.553247E1,0E0,0E0,0E0,0E0,0E0,0E0,0E0,0E0,0E0,0E0,0E0,0E0,0E0,0E0,0E0,0E0,0E0,0E0,0E0,0E0,0E0,0E0,0E0,0E0,0E0,0E0,0E0,0E0],"parents":[2147483647,0,0,1,1,2,2,3,3,4,4,5,5,6,6,7,7,8,8,10,10,11,11,12,12,13,13,14,14,15,15,16,16,17,17,18,18,19,19,20,20,21,21,22,22,23,23,24,24,25,25,26,26,27,27,28,28],"right_children":[2,4,6,8,10,12,14,16,18,-1,20,22,24,26,28,30,32,34,36,38,40,42,44,46,48,50,52,54,56,-1,-1,-1,-1,-1,-1,-1,-1,-1,-1,-1,-1,-1,-1,-1,-1,-1,-1,-1,-1,-1,-1,-1,-1,-1,-1,-1,-1],"split_conditions":[5.7239544E-1,5.395997E-1,8.0886847E-1,-1.8821476E0,6.023315E-1,-1.5418886E0,1.0178914E0,-1.9472389E0,7.710793E-3,-4.4666365E-2,1.0485663E0,6.5177673E-1,5.2935738E-2,8.492895E-1,-6.4738065E-1,-2.4622483E0,2.4634805E0,-5.1276135E-1,2.871173E-1,1.5067805E0,-3.6496702E-1,-6.3050556E-1,-1.7358242E0,-6.4748156E-1,-1.18897535E-1,8.6294025E-1,-7.283767E-2,-9.73287E-1,-3.3519143E-1,4.3834228E-2,-1.9283606E-2,4.061842E-2,-3.4408946E-2,4.9368693E-3,-1.5739974E-2,4.3473385E-2,-3.3945097E-3,4.2772055E-2,-4.257914E-2,-5.6778423E-2,3.3550072E-2,7.812935E-3,-2.050982E-2,-3.963831E-3,-2.6620377E-2,-1.7126156E-2,-2.3152087E-2,-1.9882867E-2,-3.9187536E-2,4.1516226E-2,-2.1116642E-2,-8.213422E-3,1.306499E-2,-7.7868784E-3,-2.036284E-2,-3.108129E-2,-4.018956E-2],"split_indices":[2,2,2,2,1,7,2,1,2,0,3,2,3,2,3,2,3,2,2,1,8,3,3,7,1,3,10,7,3,0,0,0,0,0,0,0,0,0,0,0,0,0,0,0,0,0,0,0,0,0,0,0,0,0,0,0,0],"split_type":[0,0,0,0,0,0,0,0,0,0,0,0,0,0,0,0,0,0,0,0,0,0,0,0,0,0,0,0,0,0,0,0,0,0,0,0,0,0,0,0,0,0,0,0,0,0,0,0,0,0,0,0,0,0,0,0,0],"sum_hessian":[1.181422E5,8.227752E4,3.5864676E4,8.020969E4,2.0678374E3,1.2184929E4,2.3679746E4,9.255914E3,7.095377E4,1.0373873E1,2.0574636E3,1.852384E3,1.0332544E4,1.4668538E4,9.011207E3,4.734032E3,4.5218813E3,3.7462562E4,3.3491215E4,2.0388362E3,1.8627449E1,1.3552749E3,4.9710913E2,9.632517E3,7.000279E2,1.1632937E3,1.3505245E4,7.6660234E3,1.3451836E3,1.6198995E3,3.1141328E3,4.311613E3,2.1026895E2,1.6992754E4,2.0469807E4,8.775326E3,2.4715887E4,2.0368516E3,1.9845318E0,7.9424233E0,1.0685026E1,1.00160077E3,3.5367413E2,8.73198E1,4.097893E2,3.6548079E3,5.9777085E3,9.847439E1,6.0155347E2,1.1469397E3,1.6353983E1,7.3023174E3,6.2029277E3,2.5364612E3,5.1295625E3,9.2125684E2,4.239268E2],"tree_param":{"num_deleted":"0","num_feature":"12","num_nodes":"57","size_leaf_vector":"1"}},{"base_weights":[6.057196E-4,-4.4263476E-1,9.0531856E-2,-3.3521242E-2,-5.7572526E-1,4.3211978E-2,6.840238E-2,-4.4326437E-1,4.0005186E-1,-8.2816625E-1,-4.487565E-1,-1.966327E-2,2.8168294E-1,-5.0850093E-1,4.3228604E-2,-5.442761E-1,6.4398664E-1,-5.0879186E-1,-9.898981E-1,-3.0762466E-2,-7.984797E-1,-2.0318809E-1,1.2931214E-1,5.082976E-1,-1.2638627E-1,4.5453426E-3,-1.936801E-2,2.0327862E-2,-2.7744537E-2,5.0013546E-2,1.3232408E-2,-8.255706E-3,-3.1051787E-2,-2.5881408E-2,-3.385775E-2,-1.813689E-2,1.0197426E-2,-1.6271079E-2,-3.1070905E-2,2.1676975E-3,-1.4240378E-2,4.2362727E-2,-6.137113E-4,6.208453E-3,4.26934E-2,-1.3104316E-2,4.4230665E-3],"categories":[],"categories_nodes":[],"categories_segments":[],"categories_sizes":[],"default_left":[0,0,0,0,0,0,0,0,0,0,0,0,0,0,0,0,0,0,0,0,0,0,0,0,0,0,0,0,0,0,0,0,0,0,0,0,0,0,0,0,0,0,0,0,0,0,0],"id":24,"left_children":[1,3,5,7,9,-1,11,13,15,17,19,21,23,25,-1,27,29,31,33,35,37,39,41,43,45,-1,-1,-1,-1,-1,-1,-1,-1,-1,-1,-1,-1,-1,-1,-1,-1,-1,-1,-1,-1,-1,-1],"loss_changes":[4.7090815E3,1.0849683E3,2.9338296E3,8.693108E2,4.8154248E2,0E0,1.8150524E3,3.0996765E2,5.4802966E2,2.5932983E2,1.4626703E3,1.8699801E3,2.6115864E3,2.2018958E2,0E0,2.2782274E2,3.916136E2,2.0785953E2,5.7912354E1,9.699064E2,3.3041577E2,2.2916392E3,7.252827E3,5.0053105E3,8.5722205E2,0E0,0E0,0E0,0E0,0E0,0E0,0E0,0E0,0E0,0E0,0E0,0E0,0E0,0E0,0E0,0E0,0E0,0E0,0E0,0E0,0E0,0E0],"parents":[2147483647,0,0,1,1,2,2,3,3,4,4,6,6,7,7,8,8,9,9,10,10,11,11,12,12,13,13,15,15,16,16,17,17,18,18,19,19,20,20,21,21,22,22,23,23,24,24],"right_children":[2,4,6,8,10,-1,12,14,16,18,20,22,24,26,-1,28,30,32,34,36,38,40,42,44,46,-1,-1,-1,-1,-1,-1,-1,-1,-1,-1,-1,-1,-1,-1,-1,-1,-1,-1,-1,-1,-1,-1],"split_conditions":[-8.487827E-1,5.7239544E-1,-2.4622483E0,-1.3109481E-2,8.024543E-1,4.3211978E-2,6.790535E-1,5.346795E-1,-1.9419482E-1,-9.3707156E-1,1.0178914E0,7.710793E-3,2.871173E-1,2.871173E-1,4.3228604E-2,-3.1736553E-1,-2.5695398E-1,6.5177673E-1,-2.2630358E-1,-5.5431455E-1,-6.356673E-1,-5.1276135E-1,2.871173E-1,7.710793E-3,5.9238315E-1,4.5453426E-3,-1.936801E-2,2.0327862E-2,-2.7744537E-2,5.0013546E-2,1.3232408E-2,-8.255706E-3,-3.1051787E-2,-2.5881408E-2,-3.385775E-2,-1.813689E-2,1.0197426E-2,-1.6271079E-2,-3.1070905E-2,2.1676975E-3,-1.4240378E-2,4.2362727E-2,-6.137113E-4,6.208453E-3,4.26934E-2,-1.3104316E-2,4.4230665E-3],"split_indices":[9,2,2,10,2,0,7,2,1,7,2,2,2,2,0,2,11,2,5,10,7,2,2,2,1,0,0,0,0,0,0,0,0,0,0,0,0,0,0,0,0,0,0,0,0,0,0],"split_type":[0,0,0,0,0,0,0,0,0,0,0,0,0,0,0,0,0,0,0,0,0,0,0,0,0,0,0,0,0,0,0,0,0,0,0,0,0,0,0,0,0,0,0,0,0,0,0],"sum_hessian":[1.1814177E5,1.9925629E4,9.821615E4,4.8912925E3,1.5034337E4,1.5831326E3,9.6633016E4,2.5147424E3,2.3765498E3,